292 100
</s> 0.003402 -0.001162 0.003991 0.003080 -0.003619 -0.003909 0.003845 0.000050 -0.001694 -0.004007 -0.002079 -0.003602 0.002481 -0.001143 0.003755 0.000687 0.003280 0.002765 -0.004641 0.001778 -0.000054 0.004754 0.003171 0.003099 0.001687 -0.004670 0.001241 0.002335 0.004158 -0.002663 -0.002072 -0.001513 -0.003355 -0.000709 -0.000618 -0.002308 -0.001358 0.003989 0.000607 -0.000155 0.000182 -0.002699 0.003773 0.004607 0.004125 0.003954 -0.001507 -0.000463 0.004903 -0.004925 0.002134 0.001155 -0.001786 -0.003786 0.003767 -0.003617 -0.002373 -0.000186 -0.002551 0.001459 -0.003517 -0.001804 -0.000273 -0.001839 -0.004140 0.000182 -0.002099 -0.003544 -0.000851 -0.002216 0.002115 0.001333 0.000284 -0.002140 -0.002451 -0.004671 -0.004496 0.001831 0.001611 -0.000956 0.004311 0.002104 -0.003827 -0.002596 -0.001345 -0.000029 0.003252 0.000688 -0.003689 -0.002986 0.003966 0.004449 0.000895 0.002665 0.001356 0.004918 0.000275 -0.001863 -0.003460 -0.000687 
en -0.083135 -0.064048 0.040152 -0.003187 0.122137 0.068728 -0.029063 0.018421 -0.110514 0.073312 -0.091001 -0.011910 0.004032 -0.009612 -0.064048 -0.076130 -0.073478 -0.026471 -0.029182 0.075828 -0.039454 -0.012254 0.031952 -0.026599 -0.003512 -0.037264 0.117758 -0.027464 0.008325 -0.019391 0.023035 -0.075941 0.124046 -0.012958 -0.033429 -0.023521 -0.052873 0.017882 0.019063 -0.114614 0.024031 0.018592 -0.010717 0.062325 -0.016031 0.027538 -0.071095 0.030847 0.012988 0.027310 -0.057139 0.016347 0.195045 0.024207 0.169111 0.004300 -0.015138 0.008460 -0.005390 0.002325 -0.075969 0.050767 -0.068577 0.003632 0.102124 0.007474 -0.103592 0.035128 0.089750 -0.071261 -0.028402 0.051566 0.021175 -0.101892 -0.073871 -0.016838 -0.105586 -0.040152 -0.005701 -0.020548 -0.025173 -0.062869 -0.021878 -0.007115 0.039966 -0.007715 0.065266 -0.079700 0.045201 0.020063 0.021324 0.058723 -0.058126 -0.021157 -0.065346 -0.040072 -0.024269 -0.116256 -0.009339 0.000437 
que -0.015804 -0.125616 0.002305 -0.035293 0.095559 0.028073 -0.023050 0.131288 -0.125038 0.094530 -0.064314 0.049710 0.200250 -0.010001 -0.149900 0.002888 0.107057 0.028486 -0.042738 0.029505 0.041237 -0.108603 0.074263 0.011007 0.155724 -0.051214 0.003820 -0.037595 -0.045691 -0.033713 0.020493 -0.088254 -0.065558 -0.079001 -0.016546 -0.024020 0.225063 -0.118528 0.036072 -0.083968 0.037335 -0.067258 0.071749 0.063470 -0.100933 0.050879 -0.035148 -0.076761 -0.027556 -0.179032 0.060209 -0.013338 0.251815 -0.060428 0.167678 0.127266 0.095682 -0.039582 -0.001590 -0.012070 -0.039640 -0.090253 -0.042113 -0.057856 -0.039116 -0.055046 0.101106 -0.016321 -0.015631 -0.006740 0.095828 -0.065236 -0.057296 -0.039999 0.018472 -0.009720 0.017349 0.050535 0.089418 -0.082825 0.023688 0.065567 -0.086014 -0.052412 0.026284 0.085369 0.279956 0.007439 0.028219 -0.049577 0.041887 -0.045292 0.090742 0.007334 -0.050298 -0.085834 -0.066008 -0.141175 -0.045921 -0.022059 
no 0.008447 -0.026687 0.037202 0.009325 0.035599 -0.012372 0.036940 0.079858 -0.082082 0.082013 -0.049492 0.027807 0.096988 0.017375 -0.115776 -0.009343 0.002849 0.019273 -0.020527 0.040340 0.006943 -0.059278 0.040258 -0.028248 0.027290 -0.077568 0.032110 0.013466 -0.009580 -0.075131 0.035812 -0.025014 -0.016462 -0.084488 -0.002857 -0.001513 0.084788 -0.013033 -0.021792 -0.070993 -0.004306 -0.064481 0.031956 0.101377 -0.049267 -0.020469 0.012979 -0.054078 0.016893 -0.065437 0.005026 -0.002843 0.149503 0.056735 0.152636 0.079593 0.020841 -0.035409 0.010425 -0.052008 0.005798 -0.060997 -0.030699 -0.062380 0.007758 0.030544 0.019650 -0.049151 0.090769 -0.027564 -0.067040 -0.006155 -0.055062 -0.039626 0.001416 0.001260 -0.039209 -0.028515 -0.013949 -0.042444 0.004708 0.005559 -0.091738 -0.037805 -0.006106 -0.041090 0.079310 -0.021346 0.017769 0.022333 0.045741 0.000935 0.001109 0.043731 -0.091195 -0.043670 -0.057270 -0.108829 -0.000486 0.042216 
la 0.035119 0.002519 0.035407 0.017558 0.011296 -0.036844 0.041441 0.060666 -0.068016 0.071571 -0.031467 0.037952 0.090487 0.030131 -0.091303 0.005368 0.000583 0.035105 -0.023381 0.019518 0.015804 -0.050749 0.030419 -0.026940 0.002517 -0.066408 0.017392 0.009169 -0.006125 -0.089523 0.030001 -0.009572 -0.026307 -0.083880 0.017389 0.010117 0.067257 0.003348 -0.045877 -0.059290 -0.020776 -0.063172 0.042864 0.091131 -0.042516 -0.038416 0.032492 -0.076878 0.018891 -0.047434 -0.001474 0.002417 0.099156 0.065065 0.110190 0.084301 -0.006154 -0.011039 0.016530 -0.036224 0.024489 -0.057913 -0.022504 -0.056521 0.004508 0.071791 0.029174 -0.053423 0.094715 -0.012095 -0.094084 -0.005408 -0.056446 -0.029446 0.023410 0.016947 -0.026887 -0.034970 -0.017173 -0.029057 0.006325 0.002708 -0.088768 -0.036305 -0.030963 -0.068355 0.032156 -0.032130 0.012301 0.057243 0.040546 -0.015209 -0.028869 0.047174 -0.102468 -0.047657 -0.046910 -0.080651 -0.000548 0.043451 
mi 0.049625 0.052038 0.017623 0.024021 -0.068394 -0.067938 0.077115 -0.015473 0.026660 -0.028774 0.036621 -0.019477 -0.017609 0.008046 0.011597 0.019098 0.016043 -0.004753 0.026096 -0.054944 0.008095 -0.016299 -0.018806 -0.001409 -0.040904 -0.041639 -0.058260 0.033325 0.031777 -0.005807 0.012050 0.069411 -0.068749 -0.014186 0.003724 0.031193 0.038852 0.004732 -0.042594 0.053473 -0.031263 -0.030643 -0.029347 0.029613 -0.001204 -0.052628 0.061773 -0.018813 0.026826 0.003077 0.026198 0.018974 -0.095680 0.051462 -0.035549 0.023919 0.000961 -0.029488 0.000475 -0.055767 0.056111 -0.057888 0.005211 -0.041930 -0.053435 0.028654 0.065602 -0.037051 0.007144 0.050850 -0.086959 0.011111 -0.028358 0.021840 0.014153 0.028756 0.016301 0.005123 -0.042731 0.027413 0.048973 0.004456 -0.003882 0.023309 0.013146 -0.038998 -0.049853 0.022445 -0.033437 -0.006542 0.016897 -0.026723 0.029924 0.032264 -0.003901 0.036286 0.001835 0.054800 -0.001931 0.022380 
a -0.024203 -0.081304 0.012109 -0.020054 0.052879 0.030669 -0.004671 0.084041 -0.079882 0.086574 -0.057139 0.053074 0.123184 0.003499 -0.094092 -0.010829 0.041402 0.031004 -0.024307 0.029832 0.013332 -0.069579 0.037948 0.021272 0.090074 -0.012461 0.010562 0.002040 -0.036846 -0.020708 0.007367 -0.065921 -0.044968 -0.055556 -0.000552 -0.016391 0.123694 -0.061310 0.020394 -0.071770 0.027125 -0.024038 0.047729 0.035610 -0.054663 0.026084 -0.041617 -0.041830 -0.000296 -0.106801 0.008414 -0.023572 0.159922 -0.025933 0.103719 0.077488 0.058642 -0.032311 0.008813 -0.012308 -0.027779 -0.062312 -0.026537 -0.041630 -0.001127 -0.046794 0.051964 -0.030934 0.011699 -0.020636 0.077500 -0.035412 -0.037271 -0.034185 0.018368 -0.023922 0.027093 0.010321 0.047682 -0.069518 -0.002784 0.045231 -0.047906 -0.045187 0.002522 0.044499 0.175158 0.005975 0.016563 -0.012111 0.024354 -0.027906 0.066651 0.010572 -0.013366 -0.051476 -0.036040 -0.113051 -0.024448 -0.007250 
he -0.112596 -0.201263 -0.026822 -0.059284 0.148795 0.123645 -0.050279 0.038842 -0.077963 0.059272 -0.091130 0.032444 0.073938 -0.092937 -0.071017 -0.070617 0.085086 -0.009996 -0.055031 0.022564 -0.027276 -0.091008 0.025269 0.055826 0.136008 -0.004254 0.030435 -0.057107 -0.066662 0.088169 0.012409 -0.092871 -0.032115 0.023954 -0.068630 -0.052900 0.165580 -0.135935 0.125306 -0.073381 0.077153 0.068256 -0.025256 -0.027946 -0.078740 0.121967 -0.143264 0.042419 -0.027153 -0.123867 0.065052 -0.029380 0.229023 -0.153805 0.103891 0.033759 0.155182 -0.041063 -0.015358 0.039979 -0.106679 -0.008315 -0.054327 -0.008425 -0.024692 -0.228840 0.052633 0.072034 -0.107700 -0.005250 0.291484 -0.000733 0.017035 -0.101724 -0.051172 -0.040336 0.042535 0.109453 0.144262 -0.063860 0.007638 0.054472 0.042963 -0.026880 0.119645 0.244080 0.353706 0.024539 0.068273 -0.189014 0.023166 -0.020347 0.224960 -0.109934 0.136321 -0.005718 -0.004946 -0.075143 -0.065300 -0.123934 
calles -0.118826 -0.154066 0.024164 -0.025477 0.179732 0.126645 -0.060889 0.034113 -0.129058 0.098356 -0.126322 0.023629 0.049097 -0.022308 -0.087539 -0.091989 -0.046944 -0.031888 -0.050364 0.087499 -0.047660 -0.038777 0.047858 0.007749 0.083157 -0.008549 0.139352 -0.045655 -0.019472 0.011041 0.030451 -0.122021 0.102030 -0.015944 -0.061316 -0.049762 0.002503 -0.039382 0.068018 -0.142750 0.059567 0.053950 0.003436 0.026265 -0.047537 0.068570 -0.151133 0.039096 0.005908 -0.035826 -0.041144 0.006779 0.286128 -0.032176 0.165197 0.030696 0.056032 -0.006872 -0.004214 0.037804 -0.118295 0.051748 -0.077734 0.005568 0.100722 -0.078744 -0.087559 0.066889 0.043029 -0.088570 0.096868 0.032889 0.031453 -0.110303 -0.061732 -0.041166 -0.069267 -0.013070 0.067536 -0.058841 -0.031692 -0.037914 -0.009626 -0.029097 0.065528 0.079987 0.202855 -0.069212 0.072515 -0.030180 0.021978 0.043349 0.011257 -0.051266 -0.003241 -0.068110 -0.023660 -0.154364 -0.049852 -0.043238 
y 0.008621 0.028762 0.023619 0.014646 -0.007679 -0.019628 0.030839 -0.009196 -0.011408 0.000665 -0.000969 -0.025035 -0.025660 0.005527 -0.006252 -0.000047 -0.010386 -0.006965 0.008213 -0.005030 -0.003781 0.006696 -0.010967 -0.009748 -0.045474 -0.039232 -0.005876 0.008148 0.016745 -0.021570 0.005605 0.026584 0.015444 -0.011013 0.001348 0.011995 -0.023258 0.032446 -0.011538 -0.004414 -0.021631 -0.012952 -0.017802 0.041951 -0.000752 -0.030212 0.028418 -0.001084 0.013055 0.025702 0.001037 0.017406 -0.022866 0.039777 0.021685 0.003039 -0.020472 -0.008897 -0.005179 -0.021008 0.014636 0.002361 0.001263 -0.014014 0.001519 0.025907 -0.000354 -0.006329 0.021809 0.011932 -0.072402 0.027027 -0.015265 -0.023086 -0.023892 0.016638 -0.020159 -0.017856 -0.036776 0.022476 0.025758 -0.013984 -0.019071 0.015731 0.007896 -0.032283 -0.041919 -0.018716 -0.003596 0.004959 0.012570 0.007659 -0.006947 0.006347 -0.023995 0.018342 0.001394 0.015631 0.005951 0.024797 
aquí -0.180381 -0.204831 -0.020715 -0.051598 0.222008 0.196032 -0.129920 0.014598 -0.099056 0.087509 -0.144824 0.010070 0.019071 -0.056206 -0.058350 -0.117073 -0.026978 -0.042322 -0.056132 0.093833 -0.065925 -0.012158 0.025117 0.030538 0.101347 0.053699 0.162718 -0.062927 -0.044926 0.084799 0.003182 -0.167786 0.132314 0.051891 -0.073316 -0.079326 -0.034463 -0.055774 0.131727 -0.138453 0.083276 0.116380 -0.005740 -0.047849 -0.027806 0.131992 -0.214052 0.102068 -0.031124 -0.026393 -0.040782 -0.021966 0.283972 -0.109765 0.124969 -0.018293 0.078106 0.019419 -0.000540 0.088992 -0.168839 0.113434 -0.066365 0.051243 0.118596 -0.167124 -0.122106 0.117784 -0.032667 -0.090587 0.244122 0.022407 0.079546 -0.120406 -0.096722 -0.079010 -0.049822 0.016372 0.113399 -0.074701 -0.073426 -0.025975 0.057094 -0.022010 0.091619 0.175287 0.251820 -0.047680 0.083163 -0.091982 0.003786 0.062733 0.060762 -0.110265 0.088372 -0.073707 0.002568 -0.147821 -0.053361 -0.099069 
de 0.125077 0.168041 0.026475 0.047404 -0.141494 -0.130015 0.115513 -0.015023 0.031731 -0.057150 0.076452 -0.023495 -0.017750 0.051902 0.025910 0.049787 -0.026489 0.023128 0.027927 -0.035208 0.040296 0.016147 -0.017035 -0.046377 -0.075589 -0.064776 -0.057787 0.053057 0.062360 -0.070252 -0.007141 0.123499 -0.062578 -0.033349 0.023903 0.038298 -0.022982 0.028982 -0.099224 0.087182 -0.065388 -0.061120 -0.011016 0.042076 0.027162 -0.098667 0.131241 -0.076598 0.049928 0.033744 0.013702 0.043668 -0.179931 0.104262 -0.050766 0.016124 -0.060139 -0.031133 -0.003889 -0.086050 0.125548 -0.074005 0.019637 -0.047658 -0.046164 0.138611 0.025306 -0.058793 0.062201 0.051362 -0.221975 0.015155 -0.031732 0.042139 0.063472 0.057657 -0.011842 -0.026237 -0.087405 0.068162 0.044811 -0.039199 -0.024945 0.017489 -0.046665 -0.164081 -0.197712 -0.019182 -0.060634 0.071262 0.010612 -0.018874 -0.070406 0.081146 -0.088281 0.057272 0.022048 0.106936 0.044114 0.069439 
sus -0.150541 -0.201186 0.015738 -0.038826 0.214748 0.166486 -0.105513 0.051688 -0.141059 0.111949 -0.148988 0.037808 0.061646 -0.018074 -0.113045 -0.084003 -0.033540 -0.024999 -0.058363 0.097733 -0.052305 -0.036287 0.065197 0.021360 0.105183 0.026443 0.155348 -0.070574 -0.052665 0.019274 0.029759 -0.175332 0.129605 -0.007921 -0.053395 -0.067851 0.007561 -0.037726 0.089153 -0.168771 0.072874 0.058519 0.022688 0.008513 -0.052131 0.095155 -0.181746 0.047247 -0.025609 -0.045313 -0.056319 -0.023949 0.340610 -0.067196 0.197754 0.021403 0.058623 0.025036 -0.000261 0.067542 -0.156266 0.074551 -0.066965 0.021495 0.127392 -0.085277 -0.098317 0.076621 0.028947 -0.108462 0.162749 0.013922 0.034495 -0.108112 -0.071133 -0.065183 -0.059278 -0.029760 0.079556 -0.098527 -0.058689 -0.025238 -0.014551 -0.043227 0.060679 0.116478 0.240931 -0.055266 0.100501 -0.025677 0.020393 0.045855 0.005203 -0.062602 0.000966 -0.113625 -0.050243 -0.203593 -0.046077 -0.043525 
me 0.009264 -0.041856 0.028748 -0.008336 0.036173 -0.009798 0.011770 0.082606 -0.080213 0.076992 -0.039009 0.048860 0.110003 0.016408 -0.096576 0.004938 0.019154 0.030028 -0.029357 0.022711 0.020038 -0.056167 0.050640 -0.007967 0.044996 -0.042845 0.021344 0.002415 -0.024860 -0.059857 0.023282 -0.045967 -0.030951 -0.076312 0.005760 -0.011955 0.091158 -0.025079 -0.013753 -0.063578 -0.003155 -0.057752 0.051517 0.075686 -0.044758 -0.011736 0.002085 -0.068397 0.004309 -0.074611 0.000345 -0.014310 0.147585 0.030152 0.118420 0.083717 0.026776 -0.017227 0.008814 -0.022527 -0.005222 -0.062550 -0.023296 -0.054215 0.004413 0.033639 0.022750 -0.049903 0.063461 -0.023464 -0.032940 -0.022739 -0.046442 -0.023416 0.014762 0.004965 -0.014016 -0.013114 0.013830 -0.046471 0.007097 0.025667 -0.072481 -0.041370 -0.014545 -0.027661 0.101054 -0.018959 0.011506 0.028679 0.033884 -0.014996 0.001476 0.040369 -0.069068 -0.057821 -0.049638 -0.112599 -0.011380 0.029637 
estas -0.156218 -0.222370 0.010473 -0.042496 0.235875 0.185672 -0.117354 0.044380 -0.130821 0.115531 -0.162665 0.030911 0.043957 -0.026433 -0.099524 -0.102554 -0.040518 -0.027852 -0.056188 0.097601 -0.060429 -0.038488 0.051245 0.031102 0.100784 0.041073 0.168405 -0.070153 -0.057993 0.036331 0.027466 -0.186007 0.130822 -0.001219 -0.061385 -0.076476 -0.004923 -0.030507 0.120476 -0.165263 0.065617 0.075945 0.012174 -0.010735 -0.036339 0.104872 -0.197424 0.072297 -0.019710 -0.025011 -0.072284 -0.030041 0.354747 -0.066041 0.181317 0.003537 0.057005 0.024240 0.001497 0.069491 -0.170127 0.093751 -0.077030 0.032478 0.137540 -0.107792 -0.116680 0.084306 0.025617 -0.103695 0.191150 0.026715 0.048351 -0.124459 -0.091689 -0.073701 -0.041095 -0.025913 0.091636 -0.099738 -0.071410 -0.026057 0.002293 -0.037773 0.060165 0.135740 0.238865 -0.061153 0.105389 -0.046360 0.018260 0.060198 0.024891 -0.079385 0.030040 -0.104757 -0.041651 -0.210573 -0.055513 -0.051568 
sueños -0.059329 -0.142458 -0.022446 -0.044335 0.105538 0.059697 -0.033336 0.051570 -0.058183 0.044657 -0.045735 0.026151 0.084902 -0.062357 -0.072843 -0.016801 0.095266 0.007119 -0.030602 0.006732 0.006250 -0.069883 0.024163 0.031656 0.111489 -0.016725 -0.017480 -0.044433 -0.051474 0.042741 0.011888 -0.066709 -0.044169 -0.006279 -0.021857 -0.025098 0.161742 -0.082801 0.079002 -0.052360 0.047765 -0.001238 0.011260 0.004368 -0.074458 0.077745 -0.067131 0.007053 -0.039860 -0.104737 0.058526 -0.032239 0.162356 -0.097699 0.079606 0.048025 0.105268 -0.023921 0.001434 0.025170 -0.077716 -0.027222 -0.017883 -0.006299 -0.046392 -0.146111 0.079720 0.030677 -0.083206 0.012354 0.195219 -0.028730 -0.024011 -0.053119 -0.032838 -0.009334 0.039243 0.084575 0.085416 -0.062282 0.013629 0.063145 -0.012672 -0.031921 0.060654 0.163323 0.258446 0.027420 0.041184 -0.121911 0.009645 -0.032559 0.156710 -0.058832 0.057427 -0.018183 -0.020619 -0.074525 -0.045898 -0.073284 
los -0.075163 -0.171739 -0.025588 -0.060632 0.115834 0.095099 -0.053675 0.055468 -0.061759 0.046839 -0.055534 0.034184 0.097461 -0.068654 -0.079670 -0.021887 0.107489 0.005627 -0.039945 -0.002189 -0.001150 -0.079439 0.033587 0.053234 0.140182 0.006649 -0.012115 -0.056587 -0.062688 0.058292 0.014200 -0.092331 -0.048493 0.002855 -0.030976 -0.032382 0.178948 -0.109763 0.095667 -0.066292 0.058552 0.012257 0.013135 -0.020081 -0.075041 0.095022 -0.097781 0.015455 -0.039538 -0.126530 0.060626 -0.032740 0.196207 -0.132883 0.078902 0.048175 0.130377 -0.012859 0.000902 0.047163 -0.086029 -0.022305 -0.019651 -0.005564 -0.039450 -0.164971 0.084613 0.043415 -0.100443 -0.000144 0.245696 -0.048325 -0.004827 -0.053760 -0.028849 -0.022258 0.057978 0.096926 0.125120 -0.074991 0.007232 0.069322 -0.007228 -0.029521 0.067459 0.204020 0.306637 0.048053 0.046959 -0.140854 0.006515 -0.032319 0.176508 -0.072708 0.082160 -0.035646 -0.033380 -0.080219 -0.051077 -0.086903 
es 0.082429 0.091984 0.023399 0.023581 -0.089843 -0.086603 0.080815 -0.000722 0.019496 -0.036262 0.041735 -0.013189 -0.006356 0.034937 0.012299 0.032020 -0.004291 0.015690 0.026956 -0.031058 0.032964 -0.010176 -0.009673 -0.024098 -0.037416 -0.048811 -0.045315 0.038093 0.036983 -0.040900 -0.001031 0.071670 -0.061360 -0.030391 0.016451 0.027179 0.010597 0.010699 -0.058745 0.059957 -0.046656 -0.047448 -0.006784 0.031060 0.005814 -0.063610 0.081682 -0.050096 0.020710 0.007234 0.020005 0.023947 -0.103762 0.067318 -0.025584 0.021059 -0.030647 -0.030141 -0.006624 -0.062452 0.078533 -0.056816 0.014201 -0.041346 -0.041995 0.077654 0.045154 -0.052238 0.039363 0.040355 -0.132286 0.008075 -0.032120 0.030436 0.042894 0.029054 -0.004293 -0.011538 -0.045795 0.031631 0.039269 -0.007869 -0.021012 0.016885 -0.016492 -0.095376 -0.099407 0.006115 -0.040226 0.030117 0.012849 -0.019592 -0.023879 0.051268 -0.043824 0.038095 0.006682 0.058440 0.013805 0.042816 
las 0.059030 0.124314 0.017056 0.031807 -0.084847 -0.084959 0.058926 -0.052044 0.041183 -0.043459 0.055101 -0.042181 -0.075305 0.017900 0.044573 0.021065 -0.041287 -0.008591 0.029608 -0.016446 0.011764 0.042032 -0.035947 -0.023793 -0.100687 -0.035096 -0.029061 0.037541 0.055770 -0.029513 -0.007542 0.090365 0.004648 0.008139 0.009959 0.036383 -0.083511 0.066044 -0.052675 0.066598 -0.052852 -0.020203 -0.031096 0.035598 0.036109 -0.061404 0.084723 -0.018752 0.031982 0.076278 0.001023 0.038347 -0.162299 0.082194 -0.045459 -0.030378 -0.068693 -0.009808 -0.012402 -0.048337 0.070486 -0.002079 0.017590 -0.009407 -0.020500 0.083632 -0.013562 -0.021165 0.032782 0.024856 -0.172826 0.041269 -0.007267 0.010021 0.002936 0.036782 -0.036684 -0.027389 -0.079962 0.062374 0.041781 -0.052406 0.001951 0.033540 -0.016929 -0.113061 -0.184493 -0.020638 -0.048655 0.041049 -0.003648 0.015397 -0.060712 0.036471 -0.041793 0.062076 0.034445 0.093814 0.039428 0.051315 
del 0.120714 0.168466 0.022669 0.050026 -0.145594 -0.122923 0.102708 -0.029962 0.051991 -0.061339 0.085095 -0.030315 -0.035411 0.039811 0.048382 0.048760 -0.026196 0.014400 0.040668 -0.051884 0.034619 0.022441 -0.029337 -0.038189 -0.083687 -0.057499 -0.062009 0.057140 0.062671 -0.049836 -0.001474 0.124289 -0.068172 -0.018609 0.015930 0.045275 -0.029206 0.039295 -0.094246 0.087903 -0.060736 -0.053058 -0.015571 0.033840 0.036698 -0.093702 0.133702 -0.063262 0.042243 0.041392 0.016571 0.039715 -0.195565 0.094931 -0.071898 0.001015 -0.058148 -0.020724 -0.002614 -0.078188 0.118794 -0.061052 0.021059 -0.039547 -0.049323 0.129045 0.031046 -0.058429 0.050927 0.051269 -0.206866 0.011889 -0.030640 0.057661 0.061397 0.058210 -0.010582 -0.026453 -0.077629 0.067697 0.052465 -0.024661 -0.014034 0.030864 -0.040432 -0.154835 -0.201651 -0.005362 -0.064697 0.059152 0.009096 -0.015850 -0.061472 0.074845 -0.060975 0.066345 0.019894 0.116864 0.042840 0.067916 
aprendido -0.169196 -0.205130 -0.023149 -0.049821 0.186223 0.163387 -0.124303 0.046534 -0.073955 0.106179 -0.108468 0.049367 0.066744 -0.059258 -0.063647 -0.083459 0.019176 -0.026065 -0.056882 0.081484 -0.052877 -0.023054 0.045616 0.045141 0.116330 0.065280 0.107876 -0.052687 -0.084019 0.057994 0.007987 -0.165584 0.089406 0.006643 -0.035830 -0.056782 0.039398 -0.055223 0.108056 -0.141077 0.079193 0.081411 0.024535 -0.026496 -0.043173 0.113564 -0.183606 0.068567 -0.032111 -0.058844 -0.016547 -0.045448 0.270607 -0.121740 0.118161 0.009891 0.083320 0.025157 0.005899 0.091825 -0.162719 0.068951 -0.039966 0.054881 0.076571 -0.155741 -0.049019 0.065649 -0.039519 -0.079017 0.258442 -0.022904 0.025452 -0.079274 -0.069972 -0.078653 -0.009220 0.027756 0.111585 -0.088706 -0.057319 0.037759 0.014102 -0.041561 0.045457 0.173002 0.277090 -0.003167 0.077813 -0.059833 0.003799 0.031408 0.070813 -0.088843 0.063718 -0.090423 -0.016396 -0.164637 -0.045020 -0.077166 
donde -0.110021 -0.183397 -0.028093 -0.052565 0.147260 0.108631 -0.081881 0.058196 -0.061596 0.060911 -0.068959 0.027932 0.085468 -0.054728 -0.074746 -0.041181 0.086985 -0.012446 -0.040958 0.033098 -0.006824 -0.051257 0.027379 0.033864 0.127011 0.020482 0.029324 -0.060045 -0.065794 0.048829 0.007887 -0.123472 0.014796 -0.001267 -0.023807 -0.040635 0.128191 -0.085039 0.105818 -0.092796 0.068601 0.030093 0.014377 -0.013123 -0.070001 0.103573 -0.117053 0.040536 -0.049626 -0.097754 0.031507 -0.041012 0.214365 -0.124298 0.087730 0.023388 0.098577 0.005802 0.000865 0.065422 -0.112999 0.015888 -0.022760 0.025671 -0.001584 -0.160315 0.029977 0.051764 -0.085480 -0.022216 0.244745 -0.036001 0.004898 -0.058047 -0.049412 -0.034938 0.026788 0.071762 0.102101 -0.074245 -0.017763 0.064606 -0.009117 -0.040667 0.060255 0.185594 0.287060 0.023778 0.065215 -0.106426 0.010690 -0.012299 0.121858 -0.068898 0.067804 -0.056742 -0.029796 -0.116661 -0.044432 -0.078086 
se -0.075118 -0.179984 -0.018930 -0.058839 0.137906 0.073842 -0.058281 0.076781 -0.089412 0.060818 -0.059172 0.034137 0.133478 -0.045895 -0.110760 -0.017726 0.119422 0.002140 -0.044851 0.009625 0.014257 -0.095221 0.041526 0.032871 0.152364 -0.013776 -0.006637 -0.056508 -0.068451 0.032253 0.012270 -0.097403 -0.045328 -0.034366 -0.022055 -0.041763 0.193228 -0.110111 0.091173 -0.072472 0.051758 -0.011687 0.032585 0.012665 -0.088471 0.084178 -0.082262 0.000271 -0.043064 -0.151119 0.062352 -0.045588 0.234408 -0.108740 0.124457 0.075974 0.127627 -0.029705 -0.005311 0.031161 -0.092640 -0.033182 -0.034157 -0.017580 -0.041961 -0.146883 0.079132 0.018947 -0.082326 -0.004418 0.219469 -0.048168 -0.033018 -0.063990 -0.023248 -0.028378 0.046171 0.086000 0.115991 -0.081543 0.001004 0.080012 -0.026205 -0.042314 0.066414 0.170581 0.317299 0.023398 0.048545 -0.125989 0.026241 -0.030487 0.160201 -0.051310 0.041757 -0.049331 -0.042855 -0.117332 -0.045699 -0.073817 
han -0.054450 -0.155168 -0.017803 -0.048576 0.128067 0.061718 -0.043006 0.082269 -0.091692 0.063118 -0.054151 0.037811 0.134501 -0.042307 -0.110630 -0.009718 0.111983 0.009685 -0.044548 0.017407 0.018516 -0.086737 0.041869 0.033544 0.130543 -0.021978 -0.005879 -0.044348 -0.063929 0.011071 0.007333 -0.095228 -0.049194 -0.039774 -0.020122 -0.032886 0.189678 -0.109678 0.084182 -0.080172 0.045084 -0.017472 0.031753 0.025820 -0.078555 0.073601 -0.071965 -0.020424 -0.033849 -0.146157 0.047119 -0.043867 0.235144 -0.096406 0.126278 0.079638 0.113301 -0.019339 0.000554 0.024271 -0.090400 -0.040626 -0.025403 -0.016975 -0.033743 -0.121586 0.081497 0.003509 -0.063684 -0.000563 0.188006 -0.045261 -0.033565 -0.063615 -0.015908 -0.027328 0.045471 0.076294 0.106812 -0.079255 0.009313 0.077061 -0.047334 -0.052656 0.054086 0.143765 0.286696 0.011716 0.050857 -0.097010 0.027548 -0.040077 0.144142 -0.047668 0.019634 -0.051337 -0.045628 -0.127596 -0.040965 -0.053190 
por 0.092207 0.137979 0.018702 0.035057 -0.109384 -0.097960 0.080579 -0.016815 0.034352 -0.042090 0.069656 -0.017925 -0.021855 0.039561 0.028909 0.034102 -0.015477 0.016344 0.029139 -0.030435 0.022871 0.019225 -0.025078 -0.026863 -0.066642 -0.044766 -0.050362 0.049173 0.046916 -0.048285 -0.007278 0.098796 -0.055110 -0.025637 0.019949 0.030190 -0.026710 0.027403 -0.075438 0.072636 -0.050818 -0.044316 -0.017254 0.036702 0.028685 -0.078963 0.105730 -0.046886 0.035319 0.028915 0.011727 0.033305 -0.151591 0.080618 -0.056484 0.007853 -0.054924 -0.014003 -0.004132 -0.066683 0.091740 -0.050576 0.020002 -0.035035 -0.046500 0.099080 0.022225 -0.050856 0.041481 0.043879 -0.172914 0.019704 -0.030256 0.038707 0.049201 0.041944 -0.006374 -0.020670 -0.068767 0.057877 0.041996 -0.021812 -0.016680 0.016188 -0.036660 -0.129491 -0.159594 -0.001784 -0.047442 0.052574 0.002422 -0.010849 -0.050717 0.057385 -0.057841 0.053616 0.020223 0.089376 0.031463 0.055637 
para 0.093858 0.117939 0.015721 0.029949 -0.115145 -0.094526 0.081705 -0.020499 0.046239 -0.057347 0.067283 -0.033921 -0.019674 0.036588 0.028880 0.038153 -0.008976 0.012245 0.036736 -0.045102 0.034148 0.011887 -0.018759 -0.022267 -0.057083 -0.041061 -0.060755 0.041872 0.054518 -0.026291 -0.001133 0.099291 -0.068975 -0.012199 0.010739 0.031460 -0.014554 0.017241 -0.070346 0.080303 -0.041178 -0.046528 -0.015395 0.017396 0.029599 -0.076979 0.093293 -0.046395 0.030657 0.029891 0.017534 0.032096 -0.159672 0.063904 -0.061463 0.010454 -0.033906 -0.026511 -0.006849 -0.065307 0.095406 -0.050471 0.021037 -0.038922 -0.049433 0.085014 0.033270 -0.050970 0.025578 0.042755 -0.156106 0.006774 -0.015191 0.050919 0.050928 0.040100 -0.001178 -0.010982 -0.053267 0.044929 0.037876 -0.019689 0.000312 0.025422 -0.028342 -0.104391 -0.147780 0.006216 -0.054760 0.043693 0.003798 -0.012547 -0.031030 0.051134 -0.034775 0.053836 0.022140 0.102999 0.022914 0.043009 
te 0.129106 0.182459 0.023305 0.053771 -0.163305 -0.149790 0.117235 -0.031085 0.064085 -0.075322 0.102791 -0.033934 -0.048630 0.036147 0.050120 0.060534 -0.016653 0.016030 0.050478 -0.066560 0.039304 0.013921 -0.039598 -0.035350 -0.088142 -0.054578 -0.083441 0.064231 0.063895 -0.041364 -0.008079 0.142442 -0.096559 -0.014483 0.025229 0.052596 -0.010217 0.028055 -0.101348 0.116543 -0.060149 -0.057203 -0.024427 0.028380 0.040014 -0.100464 0.145509 -0.061413 0.047227 0.038195 0.029590 0.051333 -0.233749 0.098434 -0.094393 -0.002212 -0.059396 -0.036708 -0.004011 -0.092084 0.137532 -0.068427 0.025744 -0.053394 -0.079416 0.110679 0.045342 -0.069476 0.034284 0.062732 -0.213636 0.021436 -0.031734 0.060770 0.067372 0.062688 0.001114 -0.011534 -0.079599 0.074819 0.058248 -0.026513 0.000798 0.038913 -0.043820 -0.154414 -0.206253 0.011140 -0.077499 0.043971 0.006847 -0.028400 -0.044088 0.065434 -0.044520 0.082556 0.026156 0.145192 0.042155 0.055467 
esta 0.072306 0.112180 0.023461 0.028239 -0.092087 -0.078274 0.066794 -0.025499 0.033518 -0.042705 0.046771 -0.030727 -0.021419 0.027161 0.023133 0.026704 -0.024266 0.005304 0.022976 -0.030313 0.019918 0.017273 -0.025137 -0.030171 -0.058272 -0.037325 -0.037228 0.033326 0.043677 -0.032986 -0.006882 0.085148 -0.034605 -0.014286 0.009831 0.027818 -0.020822 0.022882 -0.059126 0.059239 -0.039379 -0.040653 -0.019755 0.025356 0.026793 -0.058955 0.088312 -0.037175 0.029376 0.032867 0.011386 0.027863 -0.126217 0.065090 -0.039445 0.007994 -0.041483 -0.013717 -0.007314 -0.050779 0.079248 -0.038229 0.014510 -0.023486 -0.029356 0.080759 0.013073 -0.040859 0.030394 0.027653 -0.150106 0.012982 -0.015198 0.025770 0.035580 0.030491 -0.009684 -0.019829 -0.054976 0.050477 0.027807 -0.026305 -0.008370 0.024615 -0.023112 -0.103033 -0.136920 -0.004278 -0.039858 0.049397 0.006892 -0.014611 -0.046252 0.047509 -0.044491 0.044905 0.019586 0.080607 0.022410 0.038909 
crecido -0.115710 -0.151073 -0.022980 -0.041995 0.146440 0.129237 -0.087205 -0.002420 -0.051089 0.054126 -0.093926 0.016694 0.011390 -0.057652 -0.031970 -0.076427 0.011451 -0.034699 -0.045576 0.046674 -0.041330 -0.017567 0.011066 0.037432 0.076534 0.039820 0.079138 -0.048843 -0.040611 0.074472 0.004649 -0.104504 0.066982 0.044951 -0.042218 -0.052639 0.010187 -0.046882 0.096737 -0.081862 0.063982 0.077140 -0.020493 -0.040548 -0.022128 0.097548 -0.150047 0.075960 -0.030923 -0.029907 -0.007211 -0.019347 0.182696 -0.097391 0.077037 -0.018180 0.066525 0.009367 -0.001228 0.065995 -0.111896 0.072060 -0.038367 0.035068 0.052524 -0.139293 -0.058353 0.085756 -0.045583 -0.046059 0.208396 0.015338 0.049375 -0.082353 -0.074699 -0.049190 -0.003610 0.037375 0.085148 -0.044834 -0.039614 0.004109 0.048548 -0.017307 0.063825 0.148838 0.201509 -0.011475 0.059372 -0.084847 0.000025 0.023491 0.081225 -0.082405 0.083432 -0.032452 0.005860 -0.091685 -0.046422 -0.075889 
luchar -0.171445 -0.218092 -0.029220 -0.062728 0.194620 0.171940 -0.122726 0.042935 -0.078539 0.095747 -0.112719 0.044808 0.071031 -0.069897 -0.069895 -0.085531 0.044589 -0.024458 -0.067434 0.073143 -0.046211 -0.036752 0.042734 0.047509 0.118534 0.064780 0.091987 -0.062435 -0.087469 0.077467 0.002032 -0.162007 0.083730 0.020787 -0.028949 -0.058970 0.068901 -0.066246 0.119324 -0.140416 0.094914 0.086227 0.023662 -0.032787 -0.055068 0.134824 -0.187738 0.072913 -0.039172 -0.079362 -0.001285 -0.051776 0.273911 -0.139043 0.118035 0.004946 0.104049 0.021268 0.000820 0.092650 -0.157167 0.060166 -0.048483 0.047766 0.062200 -0.188381 -0.029626 0.079398 -0.064243 -0.062667 0.293574 -0.021515 0.029767 -0.077524 -0.073922 -0.067075 0.003502 0.046684 0.125079 -0.082123 -0.050183 0.045787 0.018005 -0.038985 0.059412 0.212556 0.310833 0.006948 0.083359 -0.092021 0.002962 0.017070 0.099705 -0.107403 0.082259 -0.080046 -0.018357 -0.161303 -0.049280 -0.092295 
muerte -0.003305 -0.067363 0.016784 -0.015402 0.041672 0.014024 -0.013830 0.076077 -0.061080 0.079478 -0.042911 0.046289 0.103077 0.018398 -0.085093 0.006450 0.026130 0.031502 -0.020848 0.021734 0.012849 -0.056013 0.044480 0.002029 0.059709 -0.021972 0.013588 0.001123 -0.039825 -0.045378 0.020632 -0.054614 -0.024614 -0.062370 0.012102 -0.015613 0.079698 -0.022357 0.001167 -0.065543 0.006092 -0.044749 0.060539 0.038304 -0.037949 0.000067 -0.008922 -0.044703 0.000557 -0.068129 -0.016596 -0.029013 0.150313 0.011530 0.098182 0.071203 0.029957 -0.009725 0.014386 -0.008542 -0.018549 -0.034648 -0.025599 -0.036788 0.018023 0.009170 0.023901 -0.040883 0.051868 -0.022306 0.012827 -0.030052 -0.038183 -0.020212 0.019237 -0.010726 0.014610 -0.010462 0.023203 -0.056404 -0.011528 0.037244 -0.064672 -0.046857 -0.019879 0.007787 0.106127 -0.004280 0.019030 0.030735 0.017331 -0.013123 0.004457 0.031276 -0.052897 -0.068473 -0.058842 -0.115483 -0.017250 0.021335 
alcance -0.027292 -0.092216 0.004924 -0.021247 0.076031 0.039806 -0.033390 0.075818 -0.077634 0.091696 -0.063393 0.054458 0.099852 0.011964 -0.090323 -0.007540 0.021357 0.025094 -0.032920 0.039191 -0.000344 -0.048569 0.052641 0.006160 0.065183 -0.003647 0.045757 -0.013031 -0.043941 -0.038647 0.021490 -0.085899 0.004596 -0.060135 0.001443 -0.024600 0.075058 -0.030153 0.024341 -0.091050 0.017095 -0.023197 0.061791 0.036089 -0.037907 0.018474 -0.043848 -0.033479 -0.011838 -0.072447 -0.019903 -0.033452 0.187869 -0.006253 0.116094 0.061544 0.034324 0.000593 0.018511 0.001748 -0.051164 -0.024155 -0.029698 -0.018336 0.032239 -0.006023 0.002114 -0.018425 0.040023 -0.035653 0.049796 -0.030993 -0.029566 -0.033287 -0.000549 -0.027391 0.006724 -0.017724 0.029635 -0.069232 -0.027823 0.026661 -0.063774 -0.047261 -0.011109 0.026827 0.131416 -0.006422 0.034700 0.017158 0.019032 -0.008622 0.005118 0.012770 -0.046718 -0.074101 -0.052120 -0.134953 -0.024785 0.002707 
sobre -0.157606 -0.203395 -0.001178 -0.041957 0.222463 0.175594 -0.124912 0.051555 -0.115028 0.115774 -0.145460 0.036786 0.040921 -0.024669 -0.089547 -0.087505 -0.034618 -0.024339 -0.056127 0.104825 -0.051976 -0.020649 0.050677 0.022470 0.084253 0.051711 0.151202 -0.060677 -0.070115 0.027175 0.024759 -0.182875 0.147613 -0.008981 -0.033146 -0.069755 -0.017077 -0.023297 0.101575 -0.167914 0.069891 0.073718 0.023756 -0.007130 -0.041031 0.097750 -0.184049 0.076594 -0.029800 -0.029352 -0.076682 -0.033071 0.334258 -0.073237 0.168842 0.004763 0.039802 0.044381 0.008029 0.080059 -0.170554 0.096296 -0.067848 0.051123 0.126465 -0.103554 -0.102191 0.079036 0.022516 -0.104497 0.183289 0.006935 0.033453 -0.107983 -0.082452 -0.069478 -0.048396 -0.026164 0.083653 -0.087531 -0.079297 -0.013616 -0.015405 -0.044868 0.049042 0.131629 0.217778 -0.055594 0.102094 -0.020080 0.010787 0.060105 -0.003538 -0.071796 0.009110 -0.110774 -0.049693 -0.202439 -0.043994 -0.053193 
males -0.147617 -0.192832 -0.003426 -0.036118 0.201206 0.159569 -0.117457 0.042896 -0.110967 0.104370 -0.130609 0.032208 0.049274 -0.028649 -0.076226 -0.078707 -0.024358 -0.025646 -0.048648 0.095356 -0.050096 -0.022917 0.043149 0.016723 0.088362 0.044147 0.134066 -0.065680 -0.062167 0.028500 0.024905 -0.167102 0.131535 -0.007875 -0.037866 -0.066389 -0.005508 -0.023487 0.096789 -0.154643 0.067636 0.061499 0.029623 -0.004317 -0.032530 0.086794 -0.161673 0.064987 -0.020854 -0.025800 -0.068041 -0.036100 0.309981 -0.068689 0.158196 0.009217 0.046179 0.029959 0.006876 0.069995 -0.154095 0.084131 -0.060461 0.043759 0.112897 -0.092916 -0.095038 0.071159 0.015838 -0.096395 0.169447 0.008458 0.035954 -0.097152 -0.074540 -0.069480 -0.040460 -0.020072 0.076141 -0.084459 -0.069515 -0.009122 -0.007238 -0.037069 0.042624 0.124285 0.205098 -0.041726 0.087277 -0.017690 0.007725 0.052760 0.001855 -0.062945 0.010282 -0.103090 -0.045412 -0.195431 -0.047814 -0.043367 
tenido -0.083637 -0.186074 -0.030954 -0.063234 0.132024 0.091917 -0.063642 0.052935 -0.063641 0.049063 -0.047184 0.039047 0.090135 -0.068764 -0.077630 -0.023849 0.118351 -0.003458 -0.040126 -0.003548 -0.001158 -0.076872 0.022745 0.054840 0.142253 0.006737 -0.018250 -0.057534 -0.071745 0.056496 0.008206 -0.100400 -0.048369 -0.002122 -0.021500 -0.042759 0.190955 -0.116616 0.103273 -0.058199 0.070725 0.021024 0.007239 -0.017113 -0.085420 0.107914 -0.101950 0.025028 -0.046612 -0.131790 0.066066 -0.044460 0.195833 -0.136733 0.079740 0.048741 0.130614 -0.014465 0.001594 0.041045 -0.093639 -0.023409 -0.025144 0.002555 -0.049970 -0.192905 0.091968 0.040509 -0.117197 0.011652 0.265518 -0.034854 -0.015853 -0.061172 -0.031546 -0.021439 0.059795 0.109546 0.118328 -0.077196 0.005975 0.080735 -0.007063 -0.034797 0.076346 0.213769 0.326380 0.051484 0.048273 -0.155340 0.007035 -0.032952 0.191599 -0.078413 0.096406 -0.027476 -0.024704 -0.086442 -0.057915 -0.098937 
vuelto -0.089091 -0.196908 -0.027951 -0.064705 0.145070 0.102802 -0.067921 0.059266 -0.082445 0.056759 -0.063653 0.038659 0.115543 -0.070539 -0.089692 -0.020972 0.121460 -0.000888 -0.044155 0.008473 -0.002910 -0.093017 0.034684 0.057736 0.146313 0.002589 -0.008679 -0.062886 -0.080420 0.055486 0.005304 -0.116071 -0.045484 -0.012861 -0.026360 -0.049222 0.197335 -0.126524 0.109816 -0.072587 0.071188 0.018301 0.020725 -0.005827 -0.088255 0.110730 -0.105661 0.011815 -0.042409 -0.140656 0.064164 -0.047749 0.240246 -0.133243 0.105463 0.058460 0.132653 -0.012574 -0.004898 0.042565 -0.112019 -0.026392 -0.027122 -0.004669 -0.039272 -0.179802 0.087292 0.033407 -0.108676 -0.005715 0.270882 -0.034159 -0.016763 -0.068969 -0.032884 -0.029593 0.062093 0.101738 0.131353 -0.086748 0.001654 0.082515 -0.013909 -0.039584 0.080381 0.208994 0.339204 0.032578 0.063081 -0.143547 0.013633 -0.039151 0.187283 -0.075989 0.081638 -0.041087 -0.026344 -0.109122 -0.065646 -0.097934 
yo 0.108616 0.142341 0.016917 0.041621 -0.132852 -0.119108 0.101705 -0.028482 0.065371 -0.059138 0.083959 -0.023871 -0.041801 0.028498 0.050156 0.053931 -0.011722 0.011248 0.039719 -0.051117 0.032065 0.016903 -0.034794 -0.020295 -0.079731 -0.045136 -0.077998 0.056514 0.050466 -0.035893 -0.001423 0.115557 -0.076837 -0.017592 0.021587 0.038641 -0.008226 0.035721 -0.074327 0.095627 -0.053852 -0.043424 -0.017254 0.024911 0.028191 -0.083566 0.122188 -0.048705 0.033319 0.032155 0.027398 0.036904 -0.202565 0.072582 -0.090480 0.000777 -0.048482 -0.025393 -0.001957 -0.074061 0.103929 -0.060863 0.031284 -0.034453 -0.064471 0.084936 0.046750 -0.065869 0.026124 0.050370 -0.170498 0.010103 -0.033562 0.052122 0.045991 0.050725 0.005092 -0.001815 -0.067807 0.054218 0.044631 -0.010698 -0.004878 0.026636 -0.037562 -0.114545 -0.167727 0.015766 -0.064508 0.037022 0.000854 -0.030877 -0.020382 0.055797 -0.031457 0.064986 0.023245 0.113319 0.028955 0.047551 
el 0.127108 0.188533 0.024738 0.053967 -0.145978 -0.138270 0.111547 -0.038726 0.056184 -0.075994 0.085623 -0.044511 -0.062413 0.044650 0.057483 0.044422 -0.033757 0.004837 0.046973 -0.057946 0.026195 0.027743 -0.040145 -0.038235 -0.101090 -0.053918 -0.071409 0.054220 0.074836 -0.046381 -0.007395 0.139720 -0.058926 -0.001833 0.018997 0.056245 -0.050610 0.053516 -0.095470 0.101318 -0.060610 -0.057122 -0.031191 0.028555 0.039530 -0.098398 0.139532 -0.054261 0.037807 0.061302 0.018834 0.047347 -0.233166 0.095187 -0.090680 -0.010351 -0.073725 -0.022822 -0.010426 -0.082550 0.132657 -0.056571 0.033764 -0.028822 -0.061531 0.122970 0.029506 -0.052526 0.041502 0.050105 -0.232585 0.022918 -0.021663 0.054754 0.058308 0.055568 -0.020337 -0.017528 -0.094647 0.079610 0.057154 -0.038997 -0.009195 0.043663 -0.037151 -0.154052 -0.230224 -0.006225 -0.071051 0.062511 0.005324 -0.016516 -0.068999 0.067326 -0.059582 0.075559 0.029804 0.144424 0.039097 0.059096 
tu 0.067876 0.097862 0.007604 0.021658 -0.082265 -0.080079 0.056204 -0.012116 0.031242 -0.031705 0.051110 -0.023016 -0.022280 0.022522 0.021416 0.027231 -0.013898 0.007899 0.020172 -0.033179 0.023725 0.004738 -0.022140 -0.015389 -0.051596 -0.038005 -0.040993 0.033498 0.034987 -0.027270 -0.008043 0.068284 -0.042340 -0.008665 0.015126 0.028482 -0.008359 0.019505 -0.055607 0.054299 -0.041131 -0.038263 -0.007354 0.025062 0.015410 -0.054088 0.082879 -0.037493 0.019950 0.017873 0.016624 0.016529 -0.115287 0.057598 -0.038457 -0.001021 -0.029657 -0.022094 -0.003478 -0.045075 0.068969 -0.040200 0.021315 -0.025258 -0.034355 0.063796 0.026415 -0.033297 0.026129 0.037120 -0.123382 0.013422 -0.016491 0.027888 0.029526 0.028352 -0.005939 -0.012410 -0.051057 0.038521 0.027035 -0.015290 -0.006169 0.012804 -0.017866 -0.084929 -0.117863 0.001838 -0.033750 0.028623 0.003954 -0.011148 -0.027529 0.045225 -0.037458 0.040644 0.009874 0.071952 0.023506 0.034499 
con 0.120647 0.183002 0.025012 0.048096 -0.141576 -0.137476 0.105860 -0.029393 0.050748 -0.068532 0.095291 -0.037117 -0.048610 0.039755 0.048873 0.045134 -0.036457 0.008641 0.043131 -0.041561 0.023810 0.028691 -0.037852 -0.048145 -0.089878 -0.054431 -0.068311 0.054888 0.064801 -0.056397 -0.007842 0.125746 -0.049421 -0.020510 0.025551 0.050813 -0.042931 0.050364 -0.097788 0.091921 -0.053996 -0.054304 -0.022721 0.037012 0.035069 -0.091895 0.139609 -0.061229 0.039023 0.057339 0.021961 0.052584 -0.220355 0.093916 -0.080472 -0.004976 -0.079549 -0.016531 0.002621 -0.079787 0.118581 -0.057186 0.036118 -0.035819 -0.052955 0.128565 0.026712 -0.068388 0.051847 0.043372 -0.227274 0.027530 -0.026290 0.057178 0.052228 0.053163 -0.021850 -0.026374 -0.093714 0.077032 0.041240 -0.041608 -0.015756 0.035323 -0.053083 -0.164504 -0.221678 -0.008426 -0.062059 0.075249 0.007542 -0.015567 -0.078169 0.071943 -0.075911 0.060671 0.021969 0.124745 0.044414 0.070182 
mis 0.050499 0.086104 0.006790 0.022486 -0.065880 -0.052818 0.040485 -0.021425 0.031560 -0.042442 0.041419 -0.017215 -0.035896 0.015813 0.039197 0.023913 -0.016255 0.002717 0.014520 -0.027084 0.010897 0.024867 -0.016821 -0.020941 -0.043219 -0.013897 -0.029244 0.025605 0.034787 -0.012514 -0.011889 0.057228 -0.021101 0.002613 0.006891 0.018073 -0.030053 0.024613 -0.040313 0.046031 -0.020048 -0.014579 -0.020001 -0.001478 0.016624 -0.039442 0.053430 -0.013541 0.014888 0.027535 0.002399 0.027503 -0.117700 0.037761 -0.057672 -0.018794 -0.031834 -0.007098 0.000596 -0.023336 0.052685 -0.019951 0.016820 -0.001396 -0.023464 0.055307 0.003916 -0.018635 0.013655 0.026725 -0.092580 0.015563 -0.003923 0.033005 0.027397 0.029753 -0.011040 -0.000401 -0.034237 0.035983 0.022058 -0.015384 0.004903 0.021122 -0.013779 -0.063030 -0.101377 0.002095 -0.026798 0.019770 -0.001116 -0.002428 -0.035413 0.023838 -0.022929 0.038882 0.020195 0.069281 0.018507 0.018178 
pues 0.062831 0.078911 0.004710 0.021514 -0.075875 -0.061076 0.052622 -0.013063 0.034640 -0.036437 0.040514 -0.017601 -0.022785 0.013377 0.023904 0.029547 -0.003546 0.002082 0.026344 -0.033141 0.016439 0.006546 -0.019025 -0.006746 -0.041416 -0.024494 -0.040233 0.028260 0.028110 -0.017050 -0.006011 0.061342 -0.043146 -0.006591 0.015123 0.023558 0.000149 0.009858 -0.039758 0.058141 -0.029926 -0.022159 -0.007543 0.013829 0.011219 -0.049611 0.061691 -0.024508 0.022312 0.013988 0.010172 0.017963 -0.111736 0.040928 -0.052735 0.006183 -0.018689 -0.017679 -0.004728 -0.033430 0.065046 -0.032844 0.013850 -0.019314 -0.037262 0.048265 0.030295 -0.034296 0.008390 0.033311 -0.090488 0.002444 -0.011109 0.032352 0.025862 0.026982 0.005604 -0.006633 -0.040471 0.032960 0.023896 -0.007823 0.001433 0.017800 -0.015367 -0.062593 -0.088889 0.010580 -0.029234 0.021936 0.006953 -0.015442 -0.015848 0.032685 -0.011987 0.037493 0.006479 0.062432 0.010673 0.025614 
pueblo 0.041818 0.064619 0.008533 0.023816 -0.050199 -0.047721 0.043735 -0.014820 0.017561 -0.025364 0.026395 -0.024554 -0.025032 0.023123 0.016441 0.020196 -0.013966 -0.002749 0.015006 -0.019137 0.013929 0.006334 -0.008345 -0.017659 -0.039909 -0.031298 -0.016476 0.015990 0.030629 -0.017809 0.004177 0.051514 -0.015924 -0.006718 0.005846 0.022100 -0.024394 0.025902 -0.032342 0.032370 -0.029871 -0.024377 -0.017775 0.017426 0.017604 -0.045672 0.044877 -0.021631 0.018888 0.024078 -0.000318 0.016424 -0.079211 0.048381 -0.019098 -0.005120 -0.026234 -0.007968 -0.006777 -0.035726 0.045605 -0.022401 0.008987 -0.012210 -0.012057 0.048817 0.012540 -0.017030 0.028140 0.013806 -0.099415 0.010041 -0.013691 0.018075 0.011179 0.016470 -0.015179 -0.012930 -0.041897 0.030684 0.019049 -0.022397 -0.013103 0.012625 -0.010420 -0.065140 -0.086166 -0.002677 -0.024019 0.022266 -0.001535 -0.005442 -0.028190 0.032483 -0.027724 0.019924 0.001564 0.045535 0.013116 0.027801 
soy 0.065533 0.079366 0.010973 0.020861 -0.069624 -0.070719 0.051928 -0.008255 0.021962 -0.034808 0.043214 -0.018200 -0.017859 0.020076 0.022018 0.028427 -0.009895 0.011107 0.020960 -0.020768 0.020890 0.006055 -0.016897 -0.015502 -0.044651 -0.036718 -0.038226 0.024085 0.033953 -0.024286 0.001630 0.068732 -0.041425 -0.010927 0.008281 0.024579 -0.008669 0.016189 -0.046320 0.051212 -0.030089 -0.035698 -0.011184 0.025366 0.012860 -0.053626 0.069564 -0.027929 0.021096 0.022282 0.017113 0.020558 -0.102968 0.056776 -0.036124 0.004113 -0.030850 -0.015949 0.001258 -0.043334 0.066948 -0.032959 0.011930 -0.029416 -0.029890 0.063875 0.018090 -0.038005 0.021915 0.029342 -0.112400 0.012244 -0.020175 0.023832 0.030049 0.026271 -0.007041 -0.014148 -0.039599 0.030918 0.025700 -0.014330 -0.013889 0.017653 -0.016606 -0.072351 -0.100992 -0.000970 -0.031626 0.030368 0.001865 -0.005691 -0.024372 0.031863 -0.031366 0.027859 0.006968 0.055290 0.015956 0.035539 
mas 0.055995 0.088273 0.007953 0.026681 -0.072008 -0.062932 0.052192 -0.026725 0.026164 -0.035448 0.040155 -0.029172 -0.033276 0.014961 0.032357 0.021881 -0.016369 0.004329 0.027318 -0.022733 0.010770 0.015253 -0.024111 -0.019863 -0.060093 -0.026737 -0.037130 0.023654 0.040191 -0.029759 -0.000874 0.070747 -0.030679 0.002480 0.006935 0.028623 -0.032566 0.035948 -0.049966 0.051693 -0.034124 -0.030315 -0.021005 0.026480 0.021920 -0.049639 0.077118 -0.029456 0.019138 0.040218 0.010604 0.028109 -0.115776 0.050767 -0.038470 -0.004578 -0.037017 -0.017444 -0.002564 -0.036757 0.061861 -0.020235 0.011367 -0.012976 -0.024006 0.060185 0.013115 -0.029186 0.016653 0.023997 -0.119043 0.018994 -0.013913 0.018379 0.016255 0.030865 -0.012431 -0.008640 -0.049153 0.042045 0.034441 -0.025824 -0.006065 0.017751 -0.011306 -0.077837 -0.120621 -0.000760 -0.037310 0.022923 0.002714 -0.000210 -0.027961 0.029888 -0.028169 0.039732 0.018428 0.069859 0.026690 0.031712 
como 0.060440 0.101241 0.020604 0.030666 -0.079684 -0.074445 0.057295 -0.021218 0.028680 -0.040524 0.049372 -0.033360 -0.037541 0.023580 0.026086 0.019811 -0.018961 0.000877 0.020904 -0.024935 0.014718 0.017854 -0.023968 -0.017261 -0.065192 -0.032176 -0.029657 0.030261 0.042766 -0.027770 -0.002271 0.083224 -0.022378 0.001562 0.007996 0.023954 -0.041570 0.038026 -0.045737 0.053719 -0.041203 -0.025901 -0.024162 0.025080 0.025964 -0.056256 0.074446 -0.023665 0.022345 0.041304 0.008738 0.034686 -0.122034 0.063903 -0.047641 -0.013423 -0.048027 -0.019648 -0.007581 -0.047043 0.073898 -0.023789 0.018719 -0.020986 -0.023921 0.066391 0.006123 -0.032777 0.027994 0.030506 -0.134952 0.015446 -0.010621 0.023661 0.020398 0.033300 -0.020167 -0.021700 -0.051855 0.040489 0.035743 -0.028334 -0.004393 0.029726 -0.016608 -0.088160 -0.130267 -0.010205 -0.042595 0.030791 0.005944 0.002515 -0.043636 0.035226 -0.027028 0.041654 0.017126 0.077540 0.026897 0.038288 
voy 0.090499 0.132262 0.020215 0.039214 -0.108457 -0.103911 0.076578 -0.029828 0.042610 -0.051153 0.072001 -0.029112 -0.043336 0.024972 0.036398 0.033997 -0.014335 0.009482 0.029694 -0.034878 0.025267 0.012432 -0.031849 -0.023821 -0.077847 -0.052474 -0.052893 0.039522 0.051621 -0.033241 -0.005655 0.107739 -0.049656 -0.009632 0.012763 0.035930 -0.028451 0.042449 -0.072805 0.077278 -0.053774 -0.045589 -0.026811 0.042385 0.024902 -0.070075 0.101542 -0.046312 0.031034 0.039716 0.024495 0.040000 -0.165504 0.077409 -0.056366 -0.005761 -0.054560 -0.020574 -0.005999 -0.055993 0.089411 -0.038537 0.020146 -0.028763 -0.044985 0.092672 0.022971 -0.048286 0.029229 0.043959 -0.172594 0.017543 -0.025538 0.029158 0.030570 0.041541 -0.013869 -0.009954 -0.074524 0.059375 0.042456 -0.020533 -0.006170 0.023521 -0.025715 -0.111323 -0.154293 -0.003610 -0.054393 0.030389 0.005191 -0.015793 -0.042082 0.048186 -0.041468 0.061962 0.018573 0.103209 0.029194 0.050795 
lo 0.030935 0.027571 0.007161 0.010752 -0.035663 -0.031421 0.026691 -0.002358 0.013517 -0.017319 0.024735 -0.000803 -0.013130 -0.003039 0.001192 0.015780 0.003834 0.003127 0.004998 -0.022068 0.007105 -0.004460 -0.010807 -0.004815 -0.024039 -0.022447 -0.029233 0.012892 0.008472 -0.007615 0.003879 0.030215 -0.031757 -0.004530 0.007358 0.013091 0.015510 0.010471 -0.014307 0.025679 -0.013556 -0.016793 -0.008091 0.016052 -0.003671 -0.019679 0.032096 -0.013978 0.002401 0.004475 0.016167 0.008262 -0.049337 0.020031 -0.018787 0.002051 -0.004761 -0.007334 -0.003817 -0.020961 0.022295 -0.025777 0.002549 -0.014290 -0.029412 0.007895 0.025063 -0.015334 0.003950 0.019208 -0.033626 0.006814 -0.011734 0.004788 0.008521 0.013590 0.001703 0.012213 -0.014722 0.019203 0.020919 0.000880 -0.007290 0.007148 -0.003130 -0.020957 -0.019774 0.012216 -0.015616 -0.006481 0.006470 -0.010242 0.014847 0.012765 0.000851 0.027303 0.005119 0.025951 0.009444 0.012461 
hay 0.049083 0.074698 0.014170 0.023275 -0.069943 -0.060448 0.040493 -0.023156 0.038137 -0.031231 0.038406 -0.011922 -0.027060 0.013791 0.035920 0.024630 -0.008167 0.003446 0.022188 -0.034160 0.012425 0.014685 -0.025497 -0.017248 -0.054175 -0.025714 -0.036808 0.032876 0.032404 -0.017129 -0.002274 0.058978 -0.035118 0.002473 0.014634 0.025946 -0.018776 0.032745 -0.039871 0.047049 -0.033681 -0.024455 -0.007553 0.016975 0.026193 -0.048341 0.065536 -0.016965 0.016400 0.033585 0.007845 0.013949 -0.111631 0.039830 -0.047811 -0.008555 -0.033025 -0.010828 -0.001913 -0.024631 0.053619 -0.029250 0.017489 -0.021399 -0.032559 0.058758 0.015284 -0.032116 0.013528 0.026617 -0.094597 0.013436 -0.007480 0.035097 0.017434 0.026612 0.002330 0.000426 -0.039631 0.035657 0.028693 -0.000884 0.004850 0.020473 -0.020606 -0.065641 -0.103021 0.012691 -0.033822 0.025962 -0.000967 -0.010941 -0.022376 0.034107 -0.015006 0.035226 0.011396 0.065809 0.018753 0.033355 
ciudad 0.055147 0.063086 0.012436 0.013668 -0.064171 -0.054510 0.040546 -0.010681 0.025359 -0.029189 0.034475 -0.014863 -0.021124 0.021358 0.022182 0.019233 -0.006567 0.000392 0.026149 -0.024692 0.012478 0.011886 -0.012698 -0.009926 -0.032602 -0.013963 -0.036963 0.020870 0.028599 -0.014262 0.000358 0.049302 -0.035227 -0.002323 0.005994 0.022176 -0.009225 0.017246 -0.043050 0.043820 -0.026829 -0.027822 -0.004791 0.009767 0.018894 -0.045126 0.050320 -0.022093 0.015904 0.023549 0.002395 0.016202 -0.090684 0.038894 -0.039761 0.003124 -0.023766 -0.014861 0.002288 -0.036173 0.050730 -0.022783 0.015945 -0.020002 -0.023958 0.052518 0.022197 -0.022427 0.015481 0.028021 -0.086480 0.000728 -0.009576 0.024426 0.022969 0.022264 0.002832 -0.013641 -0.037137 0.030271 0.025558 -0.006392 -0.003693 0.015243 -0.010336 -0.062651 -0.088492 0.007991 -0.028131 0.024475 0.005558 -0.003459 -0.024867 0.033232 -0.019121 0.027284 0.012842 0.059790 0.016330 0.025410 
violencia 0.049720 0.072311 0.005699 0.020785 -0.059953 -0.054637 0.041995 -0.014510 0.023833 -0.029094 0.040063 -0.016544 -0.028463 0.016024 0.020151 0.017948 -0.015959 0.006294 0.021109 -0.020809 0.015044 0.013023 -0.012916 -0.014777 -0.042240 -0.018479 -0.031729 0.020342 0.029641 -0.022281 -0.004677 0.058874 -0.026897 -0.005314 0.010666 0.025483 -0.020097 0.025056 -0.040137 0.044447 -0.028866 -0.020848 -0.012833 0.017699 0.020821 -0.033561 0.063181 -0.016574 0.017779 0.024148 0.010302 0.024022 -0.101314 0.034937 -0.033482 -0.006675 -0.036258 -0.003230 0.001507 -0.024796 0.048649 -0.015708 0.011132 -0.014256 -0.025988 0.046763 0.011811 -0.023532 0.020064 0.024753 -0.090111 0.005727 -0.003444 0.017865 0.019113 0.018828 -0.007526 -0.005289 -0.035992 0.034356 0.018070 -0.021880 -0.000650 0.013703 -0.024300 -0.064471 -0.098668 0.000451 -0.032009 0.028759 0.001495 -0.007078 -0.024038 0.025188 -0.022793 0.033434 0.008095 0.058483 0.022543 0.028771 
así 0.041984 0.064152 0.009124 0.019138 -0.062513 -0.044809 0.046851 -0.009038 0.022408 -0.029424 0.025713 -0.017770 -0.019833 0.017524 0.020140 0.022415 -0.008316 0.001486 0.016832 -0.020708 0.013415 0.005529 -0.017308 -0.007723 -0.039857 -0.022792 -0.032178 0.024926 0.023943 -0.013939 -0.000688 0.052779 -0.028068 0.000383 0.006474 0.016803 -0.015916 0.016152 -0.032605 0.040568 -0.027850 -0.019131 -0.017446 0.013955 0.013992 -0.040691 0.053902 -0.022527 0.014488 0.023120 0.005896 0.016552 -0.082386 0.037636 -0.031606 -0.001513 -0.019440 -0.010193 -0.007159 -0.033861 0.048477 -0.022900 0.010025 -0.013193 -0.024312 0.043827 0.012054 -0.021624 0.011992 0.026268 -0.084967 0.013576 -0.007080 0.017281 0.020892 0.026278 -0.003557 -0.008311 -0.034824 0.030116 0.024674 -0.009074 -0.005718 0.014975 -0.011687 -0.052012 -0.084043 0.005022 -0.022371 0.018427 -0.002892 -0.010757 -0.013853 0.024702 -0.015147 0.028347 0.006685 0.055677 0.013496 0.025861 
madre 0.023531 0.042791 0.007193 0.015843 -0.035154 -0.029818 0.021500 -0.009442 0.013379 -0.022652 0.026556 -0.010862 -0.022135 0.009979 0.010553 0.008761 -0.008442 -0.001772 0.015294 -0.015327 0.003751 0.007691 -0.008201 -0.007336 -0.030529 -0.016720 -0.013927 0.017551 0.017792 -0.009182 -0.002609 0.031147 -0.009139 0.004765 0.007245 0.013630 -0.012707 0.020415 -0.019201 0.024286 -0.012807 -0.013236 -0.003679 0.011794 0.006882 -0.023638 0.036318 -0.011642 0.014095 0.020885 0.003825 0.007698 -0.055248 0.030315 -0.021392 -0.000881 -0.017144 -0.000748 -0.002989 -0.013717 0.025732 -0.015054 0.009053 -0.004141 -0.007652 0.027832 0.002863 -0.015857 0.014735 0.010949 -0.053301 0.006987 -0.006952 0.016668 0.010690 0.012512 -0.009860 -0.003565 -0.027171 0.019118 0.016993 -0.006115 -0.002711 0.011446 -0.008814 -0.037034 -0.062566 0.000812 -0.018885 0.014199 0.004408 -0.005670 -0.019564 0.019652 -0.008825 0.022259 0.004049 0.031806 0.010668 0.015383 
gente 0.023700 0.029152 0.009207 0.012719 -0.022527 -0.023998 0.023034 0.003173 0.007784 -0.003872 0.012341 -0.005141 -0.011780 0.008389 -0.000365 0.011128 -0.009690 0.005971 0.004767 -0.006325 0.006651 0.002785 -0.008771 -0.007450 -0.020404 -0.018184 -0.011726 0.013048 0.007310 -0.017829 0.005848 0.024026 -0.006808 -0.010157 0.005633 0.005680 -0.001382 0.013663 -0.015284 0.012489 -0.014176 -0.013013 -0.006273 0.014163 0.003519 -0.014309 0.030749 -0.007378 0.005266 0.009166 0.002243 0.012975 -0.033349 0.017540 -0.002787 0.000044 -0.009626 -0.000778 0.004655 -0.017302 0.022314 -0.009926 0.001836 -0.005561 -0.009366 0.026770 0.008087 -0.011768 0.012185 0.005477 -0.050961 0.002149 -0.013626 0.005647 0.009749 0.007836 -0.001037 -0.007615 -0.022418 0.009780 0.006385 -0.005340 -0.007328 -0.000547 -0.008250 -0.031299 -0.035507 -0.008037 -0.013493 0.019796 0.002161 -0.004293 -0.013825 0.011017 -0.014850 0.008220 0.000432 0.021792 0.010364 0.011440 
entre 0.043361 0.056528 0.009866 0.014133 -0.044065 -0.046934 0.034755 -0.013774 0.023965 -0.024548 0.032123 -0.015585 -0.024227 0.017318 0.022674 0.016554 -0.013077 0.004541 0.010145 -0.011417 0.009694 0.006096 -0.012154 -0.011277 -0.039162 -0.015679 -0.022942 0.020123 0.028467 -0.019294 -0.000524 0.049799 -0.018519 -0.000981 0.009092 0.011998 -0.014454 0.018207 -0.027999 0.037124 -0.021363 -0.020682 -0.014201 0.010028 0.015972 -0.031084 0.041469 -0.017726 0.009451 0.026135 0.003061 0.017691 -0.075380 0.035590 -0.031466 0.000037 -0.022007 -0.009463 0.000085 -0.032256 0.040101 -0.009981 0.007523 -0.009579 -0.012624 0.044759 0.011087 -0.017738 0.013403 0.018434 -0.081196 0.007070 -0.009572 0.015981 0.012531 0.013699 -0.009273 -0.010749 -0.032299 0.023261 0.017578 -0.012529 -0.003479 0.014376 -0.016356 -0.046585 -0.078258 0.001682 -0.023784 0.014879 0.003530 -0.006461 -0.017536 0.020390 -0.022496 0.022432 0.010420 0.048771 0.012977 0.022332 
dejar -0.009900 -0.032904 0.004755 -0.011249 0.014561 0.013859 -0.010047 0.017543 -0.010631 0.024730 -0.010190 0.015132 0.019365 -0.002369 -0.022944 -0.002177 0.012665 0.013064 -0.007180 -0.000246 0.000352 -0.016947 0.014809 0.007768 0.014594 0.005085 0.001309 0.000882 -0.012319 -0.006906 0.009325 -0.017871 -0.004894 -0.016851 0.008879 -0.005648 0.033129 -0.005663 0.007951 -0.021398 0.003044 -0.008365 0.019202 0.002975 -0.007359 0.010209 -0.014910 -0.009417 -0.002536 -0.018891 -0.005791 -0.011043 0.042553 -0.009620 0.021825 0.016923 0.010906 0.000877 0.006919 0.000727 -0.011850 -0.007121 -0.007968 -0.011075 0.005456 -0.015304 0.012216 -0.011604 0.007326 -0.007834 0.026082 -0.012276 -0.008209 -0.009050 0.000415 -0.004565 0.014451 0.008119 0.015449 -0.021352 -0.002889 0.015406 -0.008144 -0.009590 0.003279 0.021157 0.045761 0.008605 0.005105 -0.002058 -0.001746 -0.010448 0.011844 -0.002638 0.002580 -0.014187 -0.018726 -0.035413 -0.003042 -0.007063 
dejar, -0.020712 -0.052381 0.002344 -0.006377 0.040425 0.021405 -0.019373 0.040095 -0.036968 0.055222 -0.037381 0.032773 0.058148 0.001102 -0.051386 -0.008900 0.007642 0.016279 -0.014144 0.014408 0.002183 -0.032689 0.030169 0.004388 0.037815 -0.002061 0.020775 -0.007858 -0.022977 -0.023959 0.016734 -0.046787 0.002527 -0.031427 0.008653 -0.013378 0.048671 -0.017444 0.007360 -0.049769 0.015314 -0.008417 0.035789 0.021920 -0.025692 0.005439 -0.019000 -0.019019 -0.001985 -0.039077 -0.015826 -0.021877 0.103085 -0.007300 0.058892 0.032277 0.025601 -0.002705 0.013450 0.007734 -0.019389 -0.014523 -0.012439 -0.009588 0.019737 -0.012335 0.001595 -0.009243 0.024998 -0.017059 0.031216 -0.014054 -0.012444 -0.019239 0.000836 -0.010617 0.006068 -0.011010 0.014241 -0.038210 -0.012445 0.017375 -0.029228 -0.027063 -0.011471 0.012654 0.070741 0.000789 0.016846 0.014440 0.010838 -0.007300 0.006665 0.007134 -0.016289 -0.043437 -0.031626 -0.069052 -0.015247 0.003441 
reales -0.090395 -0.150166 -0.025024 -0.051685 0.119044 0.091015 -0.062261 0.038455 -0.060443 0.047679 -0.059619 0.027313 0.071656 -0.053349 -0.064977 -0.030779 0.075257 -0.004897 -0.044727 0.020464 -0.013761 -0.055627 0.023490 0.043064 0.110242 0.020754 0.016831 -0.048611 -0.066548 0.042488 0.000837 -0.100872 -0.001252 -0.004246 -0.022765 -0.036190 0.119202 -0.079103 0.090952 -0.070634 0.054770 0.032505 0.010147 -0.018323 -0.055851 0.083255 -0.097807 0.030607 -0.038940 -0.093926 0.029094 -0.038750 0.186578 -0.105963 0.081663 0.026020 0.088028 -0.000459 -0.005405 0.045598 -0.101698 0.010123 -0.028554 0.014092 -0.009012 -0.142077 0.038338 0.035851 -0.066302 -0.011484 0.213171 -0.020152 0.003306 -0.050332 -0.037808 -0.031147 0.037938 0.065198 0.094352 -0.062500 -0.007700 0.049178 -0.002030 -0.031588 0.050871 0.164706 0.250898 0.021225 0.055713 -0.100533 0.002620 -0.013052 0.124510 -0.064718 0.068188 -0.038271 -0.019423 -0.095633 -0.047058 -0.069269 
reales. -0.056681 -0.106342 -0.008414 -0.036053 0.089525 0.064397 -0.044574 0.033269 -0.047385 0.037418 -0.041068 0.020951 0.052865 -0.029124 -0.052397 -0.019032 0.052673 -0.002868 -0.026133 0.019230 -0.010159 -0.044825 0.027317 0.027985 0.077191 0.008449 0.012839 -0.035836 -0.046063 0.019190 0.001049 -0.069385 -0.000933 -0.009880 -0.017232 -0.025359 0.086422 -0.060228 0.057253 -0.049426 0.040581 0.011303 0.009615 -0.001331 -0.037023 0.056133 -0.063635 0.015308 -0.024702 -0.069166 0.018960 -0.024258 0.142424 -0.062166 0.065805 0.030282 0.065101 -0.002808 0.001780 0.031271 -0.071750 -0.004031 -0.020890 0.007212 -0.000229 -0.088634 0.026873 0.020156 -0.035338 -0.013737 0.137718 -0.017823 -0.007541 -0.044402 -0.025755 -0.019257 0.022707 0.038768 0.066662 -0.050293 -0.004860 0.039318 -0.009250 -0.023395 0.037985 0.101732 0.169415 0.008859 0.040986 -0.060642 0.007827 -0.012820 0.077679 -0.035510 0.031874 -0.031429 -0.015904 -0.071911 -0.033781 -0.046633 
vida 0.034915 0.054988 0.007829 0.014627 -0.053530 -0.040349 0.034684 -0.014140 0.018432 -0.020379 0.023787 -0.014453 -0.012335 0.015440 0.019115 0.014542 -0.008028 0.004962 0.021707 -0.015749 0.008980 0.009475 -0.014601 -0.016500 -0.031174 -0.020058 -0.017881 0.013323 0.024304 -0.010480 -0.003892 0.047772 -0.024522 -0.001865 0.005205 0.017775 -0.016533 0.017807 -0.032533 0.035698 -0.019889 -0.021825 -0.003908 0.008129 0.008994 -0.033069 0.049098 -0.013902 0.017687 0.022057 0.006730 0.019245 -0.075942 0.034435 -0.026989 0.000314 -0.025121 -0.008554 -0.001130 -0.027554 0.046788 -0.022564 0.011090 -0.015336 -0.017572 0.045382 0.005633 -0.020649 0.016969 0.012987 -0.077218 0.005256 -0.005716 0.018599 0.022295 0.011945 -0.007655 -0.008272 -0.030254 0.021305 0.020304 -0.009068 -0.002267 0.014844 -0.018344 -0.056501 -0.072300 -0.004955 -0.018832 0.028038 -0.001163 -0.005205 -0.029815 0.024835 -0.025138 0.015105 0.007393 0.039986 0.011450 0.020536 
esquina 0.035226 0.054342 0.012004 0.014489 -0.044686 -0.036326 0.031897 -0.001214 0.018217 -0.010475 0.029903 -0.002400 -0.006923 0.021640 0.011321 0.017820 -0.009192 0.012360 0.003786 -0.004431 0.011660 0.009660 -0.000704 -0.017821 -0.025128 -0.013552 -0.014140 0.017584 0.013517 -0.032474 -0.002765 0.037616 -0.015412 -0.012476 0.016468 0.013862 -0.008485 0.015397 -0.039117 0.019964 -0.023479 -0.021046 0.009713 0.019394 0.016021 -0.036953 0.048844 -0.027024 0.017537 0.012601 -0.002094 0.009982 -0.056313 0.038856 -0.019772 0.004821 -0.020848 -0.005602 0.003068 -0.017907 0.030825 -0.023307 0.008737 -0.007115 -0.008829 0.045950 0.008153 -0.024798 0.027894 0.012542 -0.063500 0.000947 -0.014945 0.024750 0.014702 0.015173 0.003856 -0.018165 -0.036399 0.019195 0.011167 -0.000161 -0.011162 -0.001080 -0.029305 -0.053054 -0.066227 -0.001229 -0.019536 0.040291 0.004504 -0.004553 -0.026907 0.028376 -0.035720 0.015169 -0.000058 0.026767 0.009668 0.025398 
si 0.057142 0.085340 0.015499 0.022310 -0.070600 -0.062356 0.044814 -0.010279 0.020000 -0.031054 0.037997 -0.015090 -0.017232 0.017152 0.024916 0.017849 -0.019098 0.010396 0.017449 -0.014251 0.014467 0.011943 -0.014205 -0.022455 -0.045099 -0.023248 -0.028695 0.023210 0.029024 -0.026850 -0.004298 0.055036 -0.019611 -0.010826 0.012208 0.018809 -0.019859 0.029061 -0.041741 0.038941 -0.031415 -0.027442 -0.004805 0.023747 0.017636 -0.040529 0.065173 -0.029168 0.015631 0.031642 0.007264 0.017977 -0.099692 0.047811 -0.035337 -0.002473 -0.036662 -0.006533 -0.005260 -0.036835 0.058109 -0.028809 0.012874 -0.021415 -0.019447 0.067435 0.004306 -0.030820 0.031735 0.013076 -0.105453 0.008132 -0.010935 0.022647 0.020194 0.024747 -0.013584 -0.015235 -0.043990 0.038526 0.023077 -0.014781 -0.003079 0.018368 -0.016006 -0.080625 -0.108189 -0.001810 -0.034911 0.035191 0.005565 -0.000948 -0.037396 0.037807 -0.034876 0.031972 0.015772 0.049068 0.022884 0.029258 
un 0.122239 0.170754 0.018356 0.046589 -0.142687 -0.136274 0.105779 -0.029650 0.065332 -0.069308 0.096201 -0.034701 -0.055410 0.042722 0.051154 0.047394 -0.020602 0.009850 0.041349 -0.048435 0.030812 0.031886 -0.043525 -0.030713 -0.085628 -0.042733 -0.077376 0.056347 0.068232 -0.048301 -0.014626 0.127477 -0.068969 -0.004712 0.025691 0.044663 -0.035265 0.040876 -0.087313 0.106409 -0.052160 -0.049444 -0.020125 0.032101 0.038673 -0.086427 0.134953 -0.047707 0.028134 0.044430 0.022064 0.039594 -0.223213 0.081013 -0.095888 -0.013019 -0.060226 -0.027323 -0.000083 -0.076384 0.125541 -0.060646 0.041396 -0.029215 -0.060772 0.109734 0.037641 -0.067969 0.036160 0.057910 -0.206952 0.021270 -0.022655 0.060861 0.049122 0.050930 -0.007417 -0.017452 -0.081746 0.068810 0.045275 -0.029724 -0.006206 0.030045 -0.045563 -0.137924 -0.209837 -0.000558 -0.070486 0.061531 0.004611 -0.021562 -0.051845 0.058457 -0.054237 0.071862 0.032164 0.132745 0.042420 0.058705 
loco 0.060479 0.075944 0.008673 0.018067 -0.069523 -0.061475 0.047363 -0.014882 0.023309 -0.030079 0.036772 -0.017371 -0.021430 0.018268 0.023299 0.020208 -0.010808 0.003008 0.023677 -0.022593 0.017690 0.007347 -0.016730 -0.016270 -0.047610 -0.030449 -0.035754 0.023229 0.036031 -0.021589 -0.005841 0.060275 -0.035351 -0.008660 0.004925 0.025743 -0.018218 0.018901 -0.043940 0.052777 -0.027115 -0.030450 -0.017992 0.016591 0.010848 -0.045457 0.060250 -0.031111 0.014105 0.022994 0.012046 0.025618 -0.104162 0.049532 -0.039096 -0.005384 -0.033319 -0.010726 0.001058 -0.043002 0.059870 -0.028410 0.015482 -0.017536 -0.024957 0.052715 0.019739 -0.029291 0.022395 0.029453 -0.105084 0.012164 -0.014587 0.020567 0.028929 0.025560 -0.011205 -0.009137 -0.037438 0.032103 0.021921 -0.009373 -0.004547 0.018229 -0.010618 -0.067199 -0.092340 0.002032 -0.033593 0.022321 0.003471 -0.006382 -0.028660 0.037660 -0.028591 0.031469 0.010925 0.065811 0.022416 0.028675 
este 0.085656 0.131454 0.019305 0.032793 -0.108535 -0.093482 0.073143 -0.031107 0.043296 -0.054639 0.071960 -0.020236 -0.036289 0.024750 0.045666 0.043078 -0.011690 0.006942 0.024720 -0.038937 0.019772 0.021702 -0.026350 -0.026844 -0.073728 -0.041073 -0.053882 0.034775 0.049787 -0.038721 -0.008106 0.100354 -0.048252 -0.004150 0.021732 0.032577 -0.028634 0.033638 -0.066932 0.078737 -0.041311 -0.037803 -0.016541 0.024467 0.026066 -0.062791 0.101158 -0.037153 0.021557 0.043541 0.018131 0.030985 -0.167395 0.071465 -0.070084 -0.009646 -0.055546 -0.008390 -0.000823 -0.051200 0.085779 -0.038492 0.027459 -0.023699 -0.040474 0.089162 0.023811 -0.037731 0.023056 0.037259 -0.147865 0.020541 -0.020664 0.042000 0.041137 0.045770 -0.002891 -0.005889 -0.068735 0.054437 0.034751 -0.023589 -0.003560 0.025071 -0.030859 -0.113516 -0.160492 0.000808 -0.051412 0.036979 -0.000922 -0.011608 -0.038346 0.047632 -0.035038 0.059399 0.016009 0.091794 0.035093 0.050605 
diablo 0.059295 0.078887 0.006461 0.024299 -0.066652 -0.061796 0.058337 -0.018013 0.024086 -0.031548 0.043043 -0.017889 -0.018312 0.018296 0.018700 0.024767 0.001021 0.007853 0.021015 -0.032945 0.012884 0.008014 -0.018787 -0.014298 -0.038459 -0.034137 -0.044052 0.029184 0.032153 -0.026764 -0.000141 0.061287 -0.038564 -0.009779 0.007849 0.019271 -0.004752 0.012254 -0.039167 0.048929 -0.025885 -0.030932 -0.018623 0.020816 0.017084 -0.040192 0.066542 -0.028158 0.019884 0.015099 0.020244 0.023316 -0.099474 0.043238 -0.039044 0.006969 -0.024965 -0.011999 -0.005490 -0.040833 0.061834 -0.035903 0.007404 -0.021044 -0.040944 0.049597 0.022980 -0.026173 0.009839 0.034056 -0.097593 0.011988 -0.020360 0.024366 0.020601 0.027351 -0.002216 -0.003848 -0.034714 0.036090 0.034107 -0.010637 -0.006413 0.015514 -0.009035 -0.065635 -0.085307 -0.001336 -0.033282 0.012241 -0.000638 -0.013486 -0.009239 0.031578 -0.019701 0.035852 0.012282 0.056884 0.021144 0.030065 
esto 0.043677 0.053660 0.008939 0.015713 -0.062096 -0.049298 0.042032 -0.009549 0.025068 -0.034542 0.036817 -0.008100 -0.016909 0.010706 0.013984 0.018649 0.001255 0.006916 0.018704 -0.026404 0.018731 -0.001638 -0.009680 -0.007583 -0.029254 -0.021358 -0.039127 0.020455 0.016040 -0.014176 -0.002741 0.046864 -0.041560 -0.004495 0.009398 0.021759 0.012926 0.005153 -0.024514 0.045704 -0.022115 -0.018614 -0.010422 0.004140 0.004456 -0.032489 0.052761 -0.022999 0.006805 0.004760 0.015425 0.012487 -0.084960 0.027881 -0.041798 0.002192 -0.012637 -0.010490 -0.003064 -0.032265 0.049333 -0.025824 0.010905 -0.024608 -0.037016 0.022085 0.030454 -0.021895 -0.003757 0.034393 -0.055295 0.005763 -0.009834 0.018799 0.020812 0.017676 0.009935 -0.000265 -0.024212 0.026139 0.024067 -0.000239 0.003263 0.012576 -0.003318 -0.033469 -0.058047 0.014436 -0.028857 -0.004627 -0.002833 -0.010943 0.004834 0.022483 -0.003079 0.035099 0.005166 0.055919 0.016146 0.016419 
tierra 0.005977 0.003162 0.005418 -0.001149 -0.006259 -0.004991 0.008384 -0.000134 -0.006410 -0.001788 -0.003000 -0.003747 -0.005356 0.007792 -0.001270 0.002634 0.000517 -0.000029 0.004390 -0.001461 0.003152 0.000708 -0.002085 -0.006304 -0.006019 -0.003310 -0.001629 -0.001433 -0.000266 -0.000375 -0.001451 0.008939 -0.002471 -0.002155 0.004189 -0.002745 -0.006614 -0.001918 -0.007240 -0.004156 -0.007521 -0.000959 -0.002486 0.007858 0.005632 -0.008611 0.000172 -0.004084 0.010346 -0.001029 -0.006671 0.001833 -0.003870 0.013151 0.001884 0.007039 -0.004361 -0.001840 -0.004008 -0.004464 0.001747 -0.008275 -0.003328 -0.005483 0.001457 0.010645 0.001504 -0.006891 0.012559 -0.002012 -0.019196 -0.000347 -0.001406 0.001770 -0.005008 0.001692 0.001383 -0.002460 -0.005117 0.000733 0.002002 -0.001051 -0.005704 -0.002065 0.003351 -0.007778 -0.005848 -0.006073 0.000927 0.007862 0.003042 0.003457 -0.001191 0.009391 -0.003968 -0.000905 0.001571 -0.002779 -0.003640 0.004203 
camino 0.023013 0.032257 0.005677 0.011181 -0.024307 -0.020689 0.021444 -0.009704 0.011594 -0.007715 0.015724 -0.006613 -0.011669 0.011534 0.014282 0.009470 -0.007595 0.002593 0.009608 -0.015313 0.002778 0.000160 -0.003343 -0.010533 -0.018268 -0.012784 -0.012738 0.007155 0.008828 -0.004761 -0.002873 0.023875 -0.011610 -0.005164 0.007614 0.004805 -0.007804 0.003910 -0.017351 0.020170 -0.010230 -0.010676 -0.002805 0.003328 0.006702 -0.020502 0.019143 -0.013298 0.010676 0.006245 -0.001932 0.012737 -0.045100 0.019738 -0.017449 -0.004469 -0.010470 -0.003907 -0.001370 -0.014412 0.025471 -0.006799 0.006514 -0.005773 -0.014685 0.024035 0.008936 -0.009199 0.008383 0.012970 -0.041925 0.007902 -0.000843 0.007893 0.014546 0.008927 -0.002602 0.000678 -0.018826 0.008694 0.010688 -0.001277 0.002562 0.009129 -0.004539 -0.031434 -0.036455 0.001000 -0.011359 0.015493 0.003187 -0.000085 -0.017202 0.017684 -0.010196 0.015086 0.007055 0.026814 0.001250 0.014543 
familia 0.037303 0.047530 0.009261 0.015556 -0.040431 -0.035199 0.031648 -0.009070 0.020990 -0.017694 0.024628 -0.008001 -0.008620 0.012449 0.013431 0.014525 -0.010839 0.006487 0.018167 -0.021453 0.014127 0.005963 -0.010313 -0.012956 -0.018697 -0.009409 -0.022753 0.012335 0.023031 -0.005312 -0.003853 0.034929 -0.025205 0.003642 0.001387 0.010694 -0.007738 0.007852 -0.031742 0.034403 -0.016074 -0.019396 -0.005953 0.005554 0.012055 -0.024803 0.036222 -0.016378 0.010955 0.008978 0.009169 0.014644 -0.069703 0.022674 -0.022646 0.001246 -0.018721 -0.005902 0.001647 -0.019542 0.043269 -0.022250 0.005706 -0.008885 -0.021597 0.030952 0.017235 -0.014982 0.012105 0.020535 -0.055312 0.002311 -0.005221 0.021021 0.023820 0.012488 0.000245 -0.007817 -0.018482 0.024519 0.015041 -0.009549 0.000498 0.011895 -0.009133 -0.043926 -0.059316 -0.002631 -0.023860 0.015846 0.002046 -0.004811 -0.012895 0.020186 -0.012292 0.015137 0.008000 0.039723 0.010921 0.011855 
barrio 0.033543 0.047431 0.001751 0.010791 -0.037984 -0.028640 0.020783 -0.010395 0.012007 -0.021524 0.016361 -0.012999 -0.004381 0.017623 0.006431 0.009593 -0.013761 0.008237 0.014965 -0.010211 0.014533 0.010295 -0.001400 -0.013942 -0.017015 -0.015885 -0.015911 0.009725 0.020561 -0.011405 0.003340 0.036144 -0.011814 0.003954 0.000046 0.015402 -0.014318 0.005422 -0.024865 0.028179 -0.020232 -0.020391 -0.001885 0.006483 0.007967 -0.025086 0.036479 -0.017261 0.010072 0.004728 -0.000837 0.014304 -0.054955 0.024824 -0.019677 -0.000361 -0.016171 -0.008414 0.003150 -0.014918 0.038621 -0.017065 0.003645 -0.011703 -0.011193 0.032246 0.009664 -0.011554 0.008994 0.012245 -0.056814 -0.004663 -0.004904 0.019335 0.018815 0.018445 -0.008446 -0.013555 -0.014232 0.014629 0.011674 -0.008046 0.001052 0.009202 -0.006068 -0.033186 -0.059825 -0.005037 -0.015464 0.013276 -0.003088 -0.005824 -0.025698 0.022943 -0.021352 0.012985 0.006820 0.032443 0.010833 0.013738 
su 0.055202 0.087340 0.010469 0.023759 -0.079481 -0.064751 0.048905 -0.016138 0.033937 -0.042283 0.047195 -0.016677 -0.024364 0.019241 0.027517 0.024390 -0.018162 0.001643 0.025060 -0.028343 0.021237 0.008506 -0.015751 -0.022924 -0.051332 -0.022324 -0.037675 0.022395 0.044324 -0.024996 -0.004723 0.070075 -0.036672 0.002061 0.010299 0.022523 -0.018616 0.025603 -0.053241 0.054821 -0.030478 -0.023114 -0.011023 0.016528 0.020964 -0.045463 0.066805 -0.022357 0.017816 0.025030 0.003236 0.030567 -0.117827 0.045534 -0.039749 -0.006870 -0.035668 -0.010564 -0.005907 -0.039984 0.061585 -0.032850 0.010902 -0.018631 -0.024011 0.062458 0.019838 -0.032300 0.019715 0.025307 -0.112597 0.011568 -0.010211 0.035453 0.031315 0.024589 -0.010542 -0.007924 -0.048879 0.036577 0.022631 -0.022133 -0.007129 0.017663 -0.019207 -0.072538 -0.111309 -0.004540 -0.035480 0.033479 0.001206 -0.007384 -0.036051 0.033384 -0.028481 0.035575 0.014017 0.067556 0.021825 0.036809 
calle 0.026676 0.033181 0.000212 0.008232 -0.035774 -0.028632 0.018800 -0.010653 0.010858 -0.017422 0.019562 -0.003505 -0.002368 0.010724 0.011533 0.016286 -0.008966 0.007464 0.010984 -0.006155 0.005864 0.009375 -0.003338 -0.013047 -0.011185 -0.013272 -0.016280 0.013585 0.012098 -0.013185 -0.000682 0.026893 -0.008974 -0.001209 -0.002493 0.012318 -0.011718 0.007938 -0.018221 0.023824 -0.009290 -0.017740 -0.003944 0.005778 0.010166 -0.015633 0.031880 -0.016429 0.007647 0.010095 0.007325 0.005718 -0.047493 0.012809 -0.018477 0.000900 -0.019239 0.000635 -0.005581 -0.014202 0.032297 -0.008875 0.005129 -0.009835 -0.008667 0.029506 0.005136 -0.008922 0.008429 0.010046 -0.049657 0.005063 -0.004472 0.017418 0.020869 0.013679 0.000620 -0.007838 -0.021537 0.015061 0.010114 -0.007410 -0.004451 0.003436 -0.013195 -0.032461 -0.052283 -0.001794 -0.008052 0.011455 0.001027 -0.008711 -0.020779 0.021029 -0.014924 0.015780 0.006282 0.030505 0.013767 0.014594 
loca -0.001809 -0.011064 -0.002811 -0.004497 0.005784 0.011424 -0.000685 -0.000002 -0.008040 0.007469 -0.002808 0.000659 0.008950 0.001002 -0.001923 -0.006689 0.007278 0.003407 0.002234 0.006470 0.000261 -0.006392 0.001346 0.002682 0.000554 -0.001926 0.001330 -0.003871 -0.008441 -0.000028 0.004506 -0.005007 0.001671 -0.003346 0.003098 0.000454 0.002358 -0.005223 0.003255 -0.010784 -0.000869 0.001121 0.004796 -0.002898 -0.004675 0.000320 -0.002578 0.002489 -0.002472 -0.003942 -0.001373 -0.002401 0.013683 -0.002725 0.003659 0.002694 0.002923 -0.002582 -0.003651 0.000914 -0.011119 0.000817 0.000462 -0.001508 0.002037 -0.004367 0.002350 -0.002463 -0.004928 -0.002829 0.009738 -0.002892 -0.001117 -0.003977 -0.000595 -0.007183 0.001759 0.005243 0.001430 -0.009758 0.002592 0.007338 0.002480 -0.003031 0.002319 0.001834 0.014689 0.003135 0.008474 -0.000856 -0.001869 -0.001937 0.005952 -0.000083 0.003009 -0.005288 0.000343 -0.006815 0.000238 -0.001470 
carne 0.037124 0.045386 0.005848 0.012132 -0.047326 -0.032594 0.028863 -0.009249 0.014990 -0.023672 0.024623 -0.010570 -0.007927 0.013598 0.015926 0.011010 -0.008756 0.000307 0.008182 -0.019602 0.011129 0.005631 -0.004433 -0.003596 -0.020820 -0.016855 -0.023066 0.010479 0.017209 -0.013374 0.003431 0.035814 -0.024382 -0.005538 0.002441 0.016365 -0.005483 0.012354 -0.022218 0.030996 -0.020281 -0.017040 -0.010509 0.009720 0.013074 -0.021166 0.038879 -0.012997 0.005151 0.015140 0.002536 0.008381 -0.063425 0.019740 -0.024478 0.001244 -0.011369 -0.007269 -0.005153 -0.014269 0.030972 -0.014804 0.010526 -0.010297 -0.021179 0.026544 0.010702 -0.017452 0.009464 0.014614 -0.047704 0.005001 -0.004313 0.015294 0.018204 0.014733 0.004941 0.001990 -0.026388 0.020411 0.015399 -0.001536 -0.003193 0.005946 -0.012377 -0.033926 -0.050259 0.003741 -0.021402 0.014164 0.000457 -0.009039 -0.008179 0.015843 -0.015067 0.020364 0.010863 0.039852 0.010760 0.015106 
culpable -0.017887 -0.025629 -0.005567 -0.011750 0.021681 0.017599 -0.012607 0.004952 -0.009122 0.009600 -0.011556 0.001072 0.005631 -0.001981 -0.009585 -0.011988 0.000087 -0.003265 -0.008719 0.011817 -0.008225 -0.004965 0.006177 0.006372 0.009506 0.002751 0.014497 -0.012240 -0.009410 0.003284 -0.000790 -0.025910 0.018688 -0.003634 -0.003494 -0.009673 0.001596 -0.002635 0.011227 -0.022285 0.006516 0.006823 0.004044 -0.001847 -0.006787 0.018826 -0.018989 0.006531 -0.010555 -0.005319 -0.004660 -0.005147 0.041261 -0.012853 0.019288 -0.001086 0.008671 0.002607 0.003958 0.009511 -0.024868 0.012119 -0.004607 0.004715 0.009342 -0.013632 -0.013010 0.012608 -0.003127 -0.007507 0.031073 0.000211 0.004090 -0.016082 -0.014822 -0.011742 -0.001916 -0.002252 0.014117 -0.006733 -0.007730 0.006996 -0.000264 -0.008319 0.003424 0.025840 0.029216 -0.005425 0.009276 -0.008693 -0.001752 0.008846 0.003015 -0.013320 0.003209 -0.014593 -0.006163 -0.028838 -0.003924 -0.003896 
estoy 0.032767 0.060514 0.006091 0.019492 -0.040044 -0.041970 0.025288 -0.016818 0.012026 -0.020609 0.023284 -0.014259 -0.013767 0.014344 0.018027 0.010451 -0.012446 0.002802 0.018132 -0.009740 0.004958 0.011575 -0.005983 -0.016709 -0.034041 -0.015274 -0.018343 0.018138 0.022542 -0.018379 -0.003928 0.040915 -0.012045 0.001313 0.003475 0.020774 -0.024670 0.015113 -0.032169 0.024212 -0.022257 -0.022067 -0.011019 0.017374 0.009191 -0.026804 0.041617 -0.020283 0.015841 0.028064 -0.003546 0.013781 -0.063084 0.031998 -0.018631 -0.001887 -0.027649 -0.008330 -0.003154 -0.019952 0.032666 -0.016725 0.008773 -0.007998 -0.012444 0.050135 -0.005305 -0.020469 0.023787 0.008177 -0.083908 0.008421 -0.000415 0.007172 0.011479 0.018175 -0.008167 -0.017390 -0.035180 0.019722 0.016880 -0.017683 -0.007954 0.009521 -0.009904 -0.056210 -0.078105 -0.003061 -0.023106 0.022317 -0.002953 -0.003398 -0.028638 0.020056 -0.025997 0.022840 0.005471 0.035098 0.015015 0.018695 
negocio 0.065297 0.083195 0.005303 0.021206 -0.081082 -0.061734 0.057064 -0.027124 0.039153 -0.037174 0.047729 -0.020440 -0.029702 0.017075 0.036442 0.028457 -0.013191 0.002387 0.022287 -0.036655 0.015550 0.012686 -0.022645 -0.012311 -0.049845 -0.027145 -0.048606 0.028150 0.034584 -0.023593 -0.006334 0.067936 -0.041285 -0.004750 0.011715 0.029996 -0.017781 0.020381 -0.043326 0.054695 -0.034744 -0.026108 -0.015588 0.015624 0.017878 -0.047181 0.074778 -0.024898 0.022487 0.020682 0.016267 0.016060 -0.116959 0.047192 -0.055291 -0.006366 -0.023035 -0.018138 0.000182 -0.033159 0.062708 -0.030261 0.022341 -0.024136 -0.032069 0.051416 0.022881 -0.031272 0.008585 0.028750 -0.104287 0.012120 -0.007067 0.029723 0.034169 0.031271 0.004596 -0.003242 -0.046986 0.035814 0.031206 -0.007504 0.005560 0.015834 -0.018042 -0.071457 -0.102534 0.010627 -0.035364 0.025605 -0.004614 -0.014972 -0.022424 0.034347 -0.026160 0.039018 0.022609 0.072777 0.021865 0.026593 
ya 0.051684 0.083922 0.014730 0.025603 -0.071593 -0.053558 0.042912 -0.027952 0.025658 -0.036205 0.039990 -0.026857 -0.032186 0.013750 0.028598 0.017617 -0.020059 0.005827 0.025152 -0.019816 0.013274 0.021410 -0.021026 -0.012298 -0.053132 -0.022351 -0.026735 0.026395 0.038494 -0.015514 0.000452 0.060681 -0.022161 0.002501 0.012773 0.028478 -0.026350 0.028743 -0.039487 0.048545 -0.025901 -0.019080 -0.019157 0.020067 0.019321 -0.043788 0.059134 -0.018089 0.015703 0.030189 0.009718 0.021424 -0.112661 0.041975 -0.036690 -0.004943 -0.038495 -0.015166 -0.008875 -0.029204 0.054375 -0.016688 0.017111 -0.009885 -0.020909 0.050656 0.010470 -0.021571 0.014686 0.018923 -0.106433 0.011536 -0.009682 0.021171 0.022943 0.025879 -0.007238 -0.008764 -0.047740 0.042751 0.023222 -0.014937 -0.000306 0.024312 -0.015402 -0.071414 -0.110772 0.002716 -0.027653 0.030014 -0.005132 -0.003564 -0.028131 0.032787 -0.028946 0.041245 0.011870 0.061847 0.018990 0.032209 
sangre 0.046858 0.067266 0.003428 0.021169 -0.061065 -0.049746 0.039125 -0.017647 0.029193 -0.033114 0.036701 -0.017027 -0.021186 0.020491 0.026768 0.022416 -0.014144 0.008286 0.018787 -0.019146 0.014032 0.009309 -0.009759 -0.015622 -0.038638 -0.017451 -0.025944 0.024451 0.025124 -0.023744 0.001089 0.056908 -0.024916 -0.000500 0.011938 0.021751 -0.015148 0.016283 -0.034970 0.040501 -0.024357 -0.020927 -0.005537 0.013501 0.011615 -0.034793 0.061070 -0.017208 0.013708 0.027282 0.006299 0.020965 -0.087757 0.037553 -0.039455 -0.008223 -0.024360 -0.008190 -0.007350 -0.027160 0.049555 -0.025647 0.009239 -0.011216 -0.023093 0.054870 0.009050 -0.023088 0.014352 0.023717 -0.091156 0.007428 -0.005872 0.027385 0.022039 0.022087 -0.006657 -0.013604 -0.043448 0.032372 0.023290 -0.014201 -0.006325 0.010649 -0.019025 -0.058535 -0.089105 0.003415 -0.027031 0.028615 0.001534 -0.006078 -0.030515 0.033577 -0.026633 0.026277 0.013328 0.051165 0.013946 0.030603 
neza 0.033282 0.044201 0.005288 0.013466 -0.035665 -0.037712 0.038099 -0.005458 0.014072 -0.020660 0.016822 -0.008151 -0.017711 0.008694 0.011449 0.014322 -0.004144 -0.002256 0.011583 -0.013015 0.009800 0.001926 -0.009562 -0.010650 -0.024322 -0.023263 -0.024411 0.021508 0.016341 -0.013144 -0.003076 0.035447 -0.017465 -0.001868 0.008220 0.014663 -0.004595 0.014627 -0.020173 0.029121 -0.019480 -0.016909 -0.014842 0.013938 0.003689 -0.029439 0.033985 -0.014108 0.008330 0.011015 0.007668 0.011331 -0.058725 0.031196 -0.017251 0.003459 -0.018666 -0.009193 0.001903 -0.021104 0.033702 -0.017936 0.010446 -0.017117 -0.018184 0.035877 0.009806 -0.012234 0.017326 0.022378 -0.063105 0.013196 -0.009866 0.012573 0.007174 0.011264 -0.007210 -0.006360 -0.028565 0.024532 0.018199 -0.004730 -0.008195 0.013545 -0.005726 -0.041119 -0.061963 0.005017 -0.012292 0.009148 -0.002660 -0.006551 -0.011749 0.019338 -0.016435 0.024835 0.006856 0.033005 0.013678 0.015559 
muera 0.048135 0.056642 0.001381 0.015814 -0.058327 -0.052970 0.045796 -0.005531 0.020066 -0.035153 0.030524 -0.013145 -0.007193 0.014575 0.016045 0.021745 -0.000766 0.007549 0.019892 -0.031840 0.017839 -0.001753 -0.014689 -0.010682 -0.022446 -0.027693 -0.040277 0.013964 0.027039 -0.016645 -0.002083 0.050083 -0.042018 0.001228 0.005640 0.021611 0.005711 0.003440 -0.040344 0.043769 -0.018607 -0.028544 -0.010161 0.014767 0.005870 -0.033494 0.049529 -0.026536 0.007705 0.007076 0.019385 0.018438 -0.091072 0.027504 -0.030412 0.000801 -0.017420 -0.023291 -0.001405 -0.030497 0.056054 -0.032531 0.014308 -0.024171 -0.032573 0.031839 0.026073 -0.023772 0.009331 0.031771 -0.072519 0.000691 -0.015880 0.022337 0.024351 0.025747 0.006965 0.003166 -0.021871 0.028097 0.028589 -0.002201 -0.002234 0.011517 -0.008593 -0.043681 -0.066424 0.010788 -0.024595 0.008967 0.003325 -0.008016 -0.005443 0.023921 -0.012452 0.033820 0.005282 0.062690 0.010460 0.018468 
eso 0.048555 0.074435 0.006548 0.017616 -0.061360 -0.050827 0.036317 -0.019159 0.027929 -0.031624 0.039214 -0.011084 -0.026802 0.015599 0.026951 0.020946 -0.005852 0.001372 0.022511 -0.027027 0.009777 0.011548 -0.020578 -0.014506 -0.044773 -0.018938 -0.036305 0.023262 0.025532 -0.021445 -0.005555 0.053014 -0.026056 -0.000285 0.007833 0.023105 -0.021708 0.017723 -0.037080 0.050102 -0.029933 -0.020384 -0.006217 0.014321 0.019459 -0.032365 0.055040 -0.023711 0.017530 0.024085 0.009819 0.015734 -0.097914 0.038147 -0.042428 -0.007756 -0.023730 -0.010338 -0.005497 -0.034137 0.053129 -0.020801 0.012344 -0.011142 -0.023072 0.044829 0.011163 -0.019151 0.010956 0.022789 -0.081062 0.006346 -0.007669 0.023545 0.021706 0.021018 0.001609 -0.003354 -0.032623 0.029325 0.021196 -0.014825 0.002617 0.017010 -0.014158 -0.059467 -0.095174 0.006153 -0.032016 0.020374 0.001858 -0.005947 -0.026235 0.024848 -0.019915 0.035306 0.016697 0.063748 0.017808 0.024046 
muy 0.063490 0.098419 0.015523 0.024736 -0.071950 -0.072370 0.044855 -0.020531 0.032169 -0.036498 0.040021 -0.019133 -0.035812 0.027092 0.030810 0.019555 -0.024550 0.003006 0.017129 -0.024186 0.018005 0.023023 -0.022791 -0.026562 -0.060572 -0.027436 -0.025359 0.032461 0.037484 -0.032426 -0.004844 0.068133 -0.021108 -0.002299 0.013489 0.020157 -0.037007 0.034034 -0.045318 0.045426 -0.034284 -0.022205 -0.016621 0.018851 0.022132 -0.056612 0.073487 -0.023003 0.015539 0.041987 0.000170 0.024511 -0.116930 0.056600 -0.045779 -0.007485 -0.050678 -0.007252 -0.004746 -0.033405 0.059783 -0.018505 0.015121 -0.018688 -0.021824 0.069147 0.001472 -0.032345 0.031062 0.018924 -0.124659 0.014469 -0.007653 0.026485 0.025881 0.027321 -0.015255 -0.018889 -0.049029 0.038737 0.022230 -0.020749 -0.005346 0.014870 -0.020551 -0.092868 -0.131000 -0.006974 -0.035648 0.041221 0.005175 -0.002601 -0.043366 0.033104 -0.037099 0.037424 0.008627 0.064425 0.022598 0.039079 
En -0.118163 -0.162458 -0.010927 -0.044199 0.149689 0.125779 -0.090972 0.028260 -0.070282 0.074768 -0.095879 0.022932 0.037741 -0.047162 -0.049019 -0.067529 0.015527 -0.020771 -0.049995 0.056643 -0.043247 -0.021581 0.025508 0.029609 0.077121 0.038354 0.086802 -0.046199 -0.054283 0.051231 0.008365 -0.120224 0.068506 0.011388 -0.037028 -0.045701 0.022588 -0.047149 0.094812 -0.099175 0.056167 0.066572 0.009328 -0.027408 -0.030526 0.087314 -0.134533 0.059928 -0.029733 -0.044330 -0.013982 -0.034551 0.215296 -0.084880 0.093754 0.000637 0.061108 0.021330 0.002559 0.064249 -0.125459 0.057005 -0.044343 0.035510 0.059661 -0.116193 -0.052621 0.069941 -0.033934 -0.058053 0.196195 0.000620 0.030346 -0.067973 -0.067569 -0.048625 -0.001930 0.024937 0.077161 -0.059891 -0.049303 0.015521 0.013758 -0.028807 0.050889 0.135153 0.203896 -0.008590 0.061715 -0.060957 0.007701 0.021881 0.056403 -0.071704 0.059896 -0.053113 -0.016326 -0.119218 -0.037074 -0.061502 
hablo 0.050320 0.062141 0.004790 0.018795 -0.060745 -0.062323 0.049735 -0.008826 0.020809 -0.022619 0.038332 -0.012555 -0.011961 0.011348 0.017175 0.018426 -0.000102 0.011472 0.019654 -0.031352 0.016150 0.001718 -0.011625 -0.005378 -0.033243 -0.027218 -0.038272 0.020616 0.020907 -0.020952 -0.006581 0.053087 -0.048207 -0.013192 0.013006 0.023694 0.001668 0.008941 -0.038913 0.046144 -0.022771 -0.022865 -0.014278 0.020609 0.010972 -0.035723 0.057271 -0.027483 0.012395 0.008076 0.021931 0.019646 -0.090993 0.030765 -0.034329 0.003828 -0.013512 -0.011529 0.003528 -0.039107 0.045906 -0.032606 0.011841 -0.023249 -0.033727 0.037854 0.022980 -0.030878 0.011016 0.031941 -0.073618 0.006497 -0.020008 0.025466 0.028728 0.022777 0.001492 -0.001155 -0.031966 0.025623 0.032335 -0.001977 0.002620 0.008698 -0.010567 -0.054445 -0.068877 0.006924 -0.027116 0.014540 0.004137 -0.013467 0.000914 0.027598 -0.016582 0.037245 0.010464 0.057058 0.017371 0.016626 
trampa 0.012457 0.010459 0.007869 0.001874 -0.022643 -0.014388 0.019445 0.008214 0.003370 -0.004054 0.011905 0.006573 0.000113 -0.002270 -0.003199 0.008478 0.017990 0.006625 0.006383 -0.018049 0.004648 -0.016550 -0.006404 0.003397 -0.009883 -0.019578 -0.024984 0.011661 -0.001766 -0.010834 0.003749 0.013400 -0.029392 -0.008701 0.006999 0.007487 0.025756 -0.000213 -0.007959 0.008713 -0.009771 -0.020583 -0.006601 0.012253 -0.009751 -0.010263 0.026291 -0.005435 0.008613 -0.006071 0.006427 -0.006282 -0.011774 0.017983 0.000943 0.009289 -0.000043 -0.001750 0.007764 -0.009111 0.019219 -0.023760 0.005096 -0.022261 -0.022413 0.000999 0.023783 -0.019448 0.004494 0.016437 -0.011343 0.003382 -0.016852 0.000624 0.000354 0.005035 0.010685 0.003887 -0.010194 0.002468 0.010107 0.018047 -0.011906 -0.004437 0.005721 -0.001039 0.002144 0.007549 -0.004920 -0.009943 0.006447 -0.012108 0.024312 0.010518 -0.006526 0.010179 -0.012724 0.008215 -0.001317 0.009656 
cargando 0.013417 0.013603 -0.003249 -0.000955 -0.016514 -0.008095 0.008203 -0.006386 0.006399 -0.002143 0.004967 -0.000611 -0.000476 0.002921 0.007323 0.004197 0.003172 -0.003308 0.006646 -0.003846 0.006140 0.004143 -0.004527 0.000614 -0.001760 -0.007733 -0.008760 0.008816 0.003158 -0.001248 -0.001761 0.014460 -0.011036 0.001919 0.005434 0.000258 -0.002949 -0.000031 -0.010923 0.003464 -0.009479 -0.001905 -0.001769 -0.004195 0.008003 -0.009909 0.013619 -0.000536 0.008505 0.004034 0.005504 0.002220 -0.017755 0.008756 -0.011417 0.003416 -0.007454 -0.005073 -0.000936 -0.008776 0.005444 -0.003871 0.006113 -0.000869 -0.007994 0.004344 -0.000497 -0.000078 0.004785 0.009694 -0.017659 -0.001415 -0.004415 0.001793 0.005738 0.004738 0.002095 -0.006309 -0.009863 0.002560 0.004871 0.002019 0.001849 0.005859 -0.004920 -0.011835 -0.017853 0.001375 -0.003680 0.006218 0.000514 -0.002189 -0.005114 0.001590 -0.003806 0.001437 0.005611 0.012531 -0.001806 0.003315 
dolor 0.008121 0.007603 0.000467 0.005710 -0.009842 -0.010992 0.007891 0.001799 0.006846 -0.009416 0.010445 -0.002761 -0.006424 0.008372 0.004285 0.006126 -0.005957 -0.000116 0.008246 -0.004399 0.006555 0.005802 -0.007398 -0.000014 -0.009200 -0.006267 -0.003099 0.008724 0.003237 -0.004396 -0.004366 0.007804 -0.004557 -0.004222 0.000455 0.003447 0.002523 -0.001364 -0.012061 0.003457 -0.010414 -0.004439 -0.003244 -0.001068 0.008120 -0.005426 0.006358 -0.006639 0.000678 0.003475 -0.000398 -0.000015 -0.018526 0.007388 -0.008601 0.001276 -0.001438 -0.003335 -0.004960 -0.007732 0.005945 -0.005885 0.006986 -0.006464 -0.001394 0.008196 -0.001181 -0.004683 0.005112 0.007913 -0.016620 -0.001023 0.000693 0.008679 0.003111 0.008457 0.005508 0.000113 -0.007640 0.000549 0.007548 0.001926 -0.003818 0.004228 -0.001158 -0.012599 -0.018029 -0.000418 -0.003361 0.009855 0.001028 -0.004014 -0.001201 0.004122 -0.006502 0.003624 -0.001519 0.007799 -0.001193 0.008312 
todos 0.010060 0.011963 0.000574 0.002912 -0.007112 -0.007955 0.009451 -0.007483 0.010325 -0.007993 0.008672 -0.008457 -0.003691 0.007609 0.001544 -0.001158 0.000072 0.001562 0.004562 0.000382 0.002819 0.000769 -0.006542 -0.002438 -0.008944 0.002683 -0.006730 0.008301 0.008587 0.000437 -0.002069 0.013294 -0.002121 -0.001138 0.000859 0.000165 -0.004914 0.001035 -0.002834 0.005385 -0.002765 -0.005235 -0.006403 -0.003365 -0.000140 -0.007688 0.010507 -0.002056 -0.002131 0.007104 -0.002682 0.008544 -0.021181 0.003768 -0.011344 -0.006133 -0.000071 -0.002858 0.001005 -0.002857 0.013507 -0.005725 -0.000811 -0.005692 -0.001321 0.009607 0.006615 -0.002282 -0.000004 0.008582 -0.015986 -0.002451 -0.001050 0.006374 0.006277 0.009017 0.003044 -0.005715 -0.006673 0.008201 -0.000726 0.000225 0.003562 0.005677 -0.001621 -0.010694 -0.018858 0.002645 -0.005238 0.007577 -0.001916 0.000593 -0.006113 0.002755 -0.004550 -0.000349 -0.001950 0.013086 0.001692 0.007084 
dos 0.015795 0.021013 -0.000104 0.003836 -0.016779 -0.013243 0.002777 -0.004856 0.002942 -0.006606 0.010265 -0.007294 -0.007200 0.006713 0.007849 0.008174 0.000539 0.003013 0.007544 -0.008939 -0.000992 0.002119 -0.004190 0.001754 -0.009600 -0.005125 -0.011685 0.008945 0.009447 -0.001678 0.001005 0.016202 -0.009636 -0.000524 0.001022 0.008214 -0.002518 -0.000244 -0.006192 0.014575 -0.002825 0.000409 -0.003996 -0.002873 -0.000075 -0.005380 0.015467 -0.000968 0.006389 0.005751 0.003055 0.002481 -0.022966 0.004842 -0.010667 -0.004541 -0.007074 0.001548 -0.004189 -0.004872 0.016377 -0.000582 0.003517 0.002993 -0.006501 0.012321 -0.000600 -0.005328 -0.000687 0.002135 -0.015966 0.004667 0.002820 0.006835 0.003772 0.006428 0.004022 0.001755 -0.005959 0.006858 0.004341 -0.000245 -0.000353 0.004812 -0.006029 -0.013150 -0.026992 0.002401 -0.007379 0.005735 0.001513 0.002617 -0.008050 0.005869 -0.002300 0.003667 0.000403 0.018410 0.004096 0.006909 
cagas 0.010650 0.015979 -0.001797 0.000294 -0.014459 -0.011880 0.001448 -0.005122 0.006630 -0.008063 0.011966 -0.000943 -0.005005 0.004659 0.002623 0.002647 -0.001505 -0.003109 0.009284 -0.006337 0.002795 0.004890 0.002163 0.001128 -0.011155 0.000765 -0.005904 -0.000024 0.009099 -0.002035 -0.001832 0.007181 -0.008669 -0.003794 0.004523 0.008549 -0.002153 0.001037 -0.011888 0.009950 -0.006469 0.002058 -0.004199 -0.005099 0.008196 -0.003270 0.005442 -0.003944 -0.001114 0.010020 0.004431 -0.000414 -0.019159 0.002699 -0.007887 -0.007308 -0.002493 -0.001647 -0.000497 -0.008683 0.006909 -0.002078 0.002238 -0.004568 -0.005713 0.010096 0.003803 -0.006368 -0.003349 0.003357 -0.014868 0.003679 -0.004140 0.009013 0.004512 0.005542 0.004401 0.003058 -0.006418 0.008339 0.004873 -0.000209 0.005780 0.008445 0.000376 -0.014584 -0.023764 0.005079 -0.009883 0.007850 -0.002749 -0.005515 -0.003439 0.007693 -0.003564 0.005152 0.003689 0.011845 0.001122 0.000092 
cartón 0.004606 0.001471 -0.002750 0.004565 -0.000709 0.001112 -0.001376 0.002014 0.000034 -0.003997 -0.000396 0.000276 -0.002853 -0.002533 0.007765 0.000139 -0.004542 0.001689 0.006071 -0.000145 -0.002620 0.002326 0.001642 0.003037 -0.000285 0.002999 -0.001116 -0.002832 -0.002458 -0.001682 0.003496 -0.000005 -0.003742 0.001007 -0.002915 -0.001751 -0.003941 -0.001932 -0.001205 0.003972 0.001960 0.001765 0.003502 0.002219 0.004485 -0.005689 0.000498 0.003316 -0.000429 0.005484 0.001851 -0.003863 -0.009623 0.005822 -0.006494 -0.001458 -0.002990 -0.002471 0.003535 0.003887 0.004221 -0.002493 0.002068 -0.003457 -0.003019 0.004049 -0.003604 0.003678 -0.001753 0.006038 -0.007540 -0.001421 -0.004426 0.007447 0.005682 0.003325 -0.001129 0.000053 0.001655 0.004057 0.003155 -0.000476 0.003303 0.002237 0.000035 -0.002608 -0.009561 0.000769 -0.000607 -0.000267 -0.005195 -0.000056 -0.006783 -0.001731 0.004133 0.004699 0.005827 0.007408 -0.003177 -0.004040 
mismo 0.026454 0.032444 0.006523 0.004550 -0.032212 -0.025170 0.021341 -0.008204 0.013048 -0.014392 0.014646 -0.006089 -0.008298 0.010586 0.012575 0.013580 -0.004804 -0.001587 0.014348 -0.015808 0.008206 0.004001 -0.006962 -0.003517 -0.018406 -0.012301 -0.012018 0.010367 0.015717 -0.004692 0.000292 0.029166 -0.013674 -0.002875 -0.000617 0.014055 -0.010606 0.003939 -0.019079 0.021949 -0.008936 -0.008137 -0.008696 -0.001968 0.011175 -0.015684 0.021808 -0.007257 0.010297 0.009061 0.008271 0.008818 -0.044975 0.013466 -0.025373 -0.004298 -0.012836 0.000149 0.000800 -0.009884 0.028402 -0.005775 0.005470 -0.001373 -0.007230 0.026978 0.008865 -0.010186 0.000110 0.006674 -0.035192 0.004332 -0.001370 0.018425 0.011506 0.015286 -0.004997 -0.006809 -0.017070 0.016871 0.013481 -0.010014 0.004175 0.010269 -0.005316 -0.029380 -0.041039 0.004359 -0.011534 0.010318 -0.000647 -0.004609 -0.017616 0.013698 -0.004900 0.018304 0.001493 0.026429 0.003809 0.008005 
pisaron 0.021498 0.034313 0.003062 0.005677 -0.023577 -0.018776 0.014228 -0.001963 0.013420 -0.015908 0.011645 -0.007687 -0.011917 0.003717 0.012575 0.008963 -0.007630 0.000704 0.011205 -0.015248 0.002926 0.009031 -0.006265 -0.006942 -0.016985 -0.012152 -0.009417 0.007935 0.013223 -0.000325 -0.001920 0.022326 -0.013797 -0.005253 0.007006 0.010597 -0.001646 0.006177 -0.016948 0.018884 -0.013880 -0.011062 -0.006626 0.000080 0.011177 -0.017357 0.018706 -0.009668 0.005050 0.007846 0.002907 0.013346 -0.047018 0.018959 -0.023194 -0.006041 -0.006097 -0.006023 -0.001712 -0.016846 0.024828 -0.013397 0.011119 -0.001237 -0.014423 0.023114 0.005134 -0.008209 0.007926 0.007720 -0.032658 0.002072 -0.002673 0.014915 0.011228 0.015252 0.003814 -0.002485 -0.014938 0.008353 0.012020 -0.002916 0.001101 0.008782 -0.002792 -0.022340 -0.041132 0.002054 -0.013591 0.007186 0.004155 -0.001269 -0.007294 0.014828 -0.006281 0.014739 0.000174 0.024340 0.002854 0.010035 
paisanos 0.025410 0.026025 -0.000633 0.004477 -0.027272 -0.019586 0.020475 -0.011040 0.012522 -0.012135 0.012214 -0.007389 -0.010973 0.007021 0.013817 0.006803 -0.009394 0.004845 0.006018 -0.014049 0.003552 0.003111 -0.006287 -0.008534 -0.017874 -0.010976 -0.016385 0.006896 0.016247 -0.002228 -0.003565 0.026976 -0.010934 -0.003553 0.005602 0.007204 -0.002102 0.005340 -0.020704 0.017863 -0.006337 -0.009331 -0.004637 -0.002482 0.003428 -0.020422 0.024926 -0.006595 0.006650 0.008955 0.002939 0.008724 -0.043179 0.015553 -0.020716 -0.000115 -0.009664 -0.007950 -0.000329 -0.013456 0.027449 -0.007317 0.005580 -0.001911 -0.015289 0.015662 0.008752 -0.003838 0.003902 0.006688 -0.039005 -0.000888 -0.003820 0.014608 0.015597 0.010381 -0.004817 -0.002446 -0.009941 0.007976 0.012451 -0.004315 0.000402 0.005885 -0.010271 -0.022661 -0.037379 -0.000997 -0.006934 0.010191 -0.001898 -0.006153 -0.016208 0.014399 -0.003970 0.014859 0.000706 0.029952 0.009921 0.013575 
dejando 0.006753 0.007178 -0.003625 -0.001864 -0.005288 -0.003329 0.009606 -0.001055 0.000257 -0.009185 0.008993 0.000161 0.000777 0.005685 0.007823 0.001844 -0.003794 0.002267 0.007952 -0.007182 0.005233 -0.001324 -0.000274 -0.004568 -0.000521 -0.001894 -0.001269 0.004284 0.003660 0.001261 -0.001983 0.003719 -0.006448 0.000386 0.000645 -0.000377 -0.004710 0.003060 -0.009004 0.002995 -0.003155 0.001332 -0.005072 0.001455 0.006149 -0.008104 0.011132 -0.003928 0.002470 0.008231 0.002035 0.000776 -0.012182 0.009283 -0.010675 -0.004290 -0.002700 0.001285 -0.005335 -0.008467 0.011428 -0.004656 0.001311 -0.001640 0.001406 0.006852 0.006960 -0.007410 -0.001560 0.006849 -0.018681 -0.000676 0.002666 0.007610 0.003614 0.000103 -0.001773 -0.005362 -0.008907 0.004161 0.004629 -0.003561 -0.001708 0.002385 -0.001379 -0.008880 -0.010672 0.003829 0.000884 0.005828 0.001059 0.002603 -0.001194 0.000895 -0.000068 0.001648 0.002487 0.008251 -0.001754 -0.000458 
olvidado 0.021381 0.024090 0.001881 0.010846 -0.017811 -0.021238 0.017613 -0.004308 0.014272 -0.012744 0.015623 -0.008876 -0.006703 0.011883 0.011436 0.008720 -0.005700 0.005639 0.006518 -0.013064 0.002539 0.001577 -0.006488 -0.002695 -0.011768 -0.004852 -0.010901 0.012781 0.012716 -0.009131 0.001483 0.019859 -0.005653 -0.002121 0.003644 0.007380 -0.002474 0.009338 -0.014917 0.020679 -0.008050 -0.012010 -0.008731 0.003325 0.003425 -0.013023 0.023003 -0.007079 0.005201 0.009065 0.004467 0.005920 -0.036201 0.013928 -0.017727 0.000943 -0.011695 -0.007484 0.001564 -0.012752 0.017539 -0.013869 0.003503 0.000120 -0.007888 0.021441 0.007855 -0.012457 0.009647 0.004742 -0.030475 -0.001710 -0.004436 0.015185 0.004320 0.003280 -0.000177 -0.002993 -0.017856 0.012077 0.005006 -0.008347 -0.002803 0.010849 -0.004094 -0.021079 -0.030744 -0.002297 -0.009614 0.007108 -0.003717 -0.001265 -0.010185 0.009154 -0.009503 0.008528 0.002507 0.024595 0.001397 0.005797 
una 0.033560 0.039995 0.007227 0.009157 -0.038327 -0.035862 0.025165 -0.008352 0.021049 -0.016389 0.021758 -0.007957 -0.013654 0.009063 0.013026 0.010780 0.000126 0.001044 0.009141 -0.017973 0.004805 0.009336 -0.005747 -0.007639 -0.019642 -0.006382 -0.023022 0.011605 0.012836 -0.004984 -0.001056 0.037153 -0.017567 0.003529 0.006412 0.012951 -0.011108 0.008227 -0.025302 0.030282 -0.009858 -0.017772 -0.001427 0.005933 0.004963 -0.026150 0.036367 -0.017765 0.010150 0.013134 0.005923 0.016210 -0.060069 0.021379 -0.026551 0.000169 -0.008759 -0.006003 0.000736 -0.023311 0.032530 -0.012531 0.011851 -0.013639 -0.017127 0.030778 0.014360 -0.018277 0.004122 0.014927 -0.052898 0.000041 -0.000018 0.019490 0.020702 0.019036 -0.002979 -0.007664 -0.020237 0.016400 0.010658 -0.007896 0.003127 0.011632 -0.004728 -0.034969 -0.055354 0.003982 -0.015838 0.009497 0.005013 -0.001139 -0.008427 0.019549 -0.006294 0.013456 0.008721 0.034529 0.003162 0.011946 
llena 0.029703 0.034916 0.006093 0.011990 -0.029226 -0.023932 0.021325 -0.004647 0.016245 -0.019680 0.016823 -0.009973 -0.013314 0.008570 0.013857 0.015493 -0.002437 -0.000266 0.010444 -0.016742 0.002558 0.001354 -0.007488 -0.006510 -0.018254 -0.005957 -0.018154 0.013458 0.013472 -0.005519 0.000853 0.026914 -0.013816 0.002626 0.002046 0.007716 -0.002125 0.008334 -0.015914 0.026088 -0.015310 -0.012191 -0.001110 -0.001671 0.005615 -0.019291 0.029267 -0.010533 0.006127 0.005083 0.005973 0.006049 -0.043549 0.018007 -0.019789 -0.002090 -0.013191 -0.006683 -0.001193 -0.013949 0.026693 -0.014223 0.001705 -0.012923 -0.017855 0.027447 0.013201 -0.010004 0.007397 0.013270 -0.041800 -0.000089 -0.001668 0.018250 0.011372 0.010935 0.003562 -0.007768 -0.017148 0.014051 0.007697 -0.007636 -0.003214 0.004515 -0.008928 -0.025646 -0.039638 0.001128 -0.013062 0.010195 -0.000056 -0.003328 -0.005223 0.009522 -0.008639 0.009254 0.003633 0.025465 0.002663 0.014845 
malicia 0.022689 0.032264 0.001732 0.009383 -0.023557 -0.020205 0.017839 -0.009637 0.015152 -0.015159 0.013465 -0.011593 -0.010826 0.006538 0.006069 0.014034 -0.001893 0.003717 0.005956 -0.015121 0.001270 0.005778 -0.004933 -0.000559 -0.014982 -0.007418 -0.010505 0.006755 0.010173 -0.009445 -0.005016 0.025879 -0.018954 -0.003069 0.007603 0.010995 -0.004642 0.002095 -0.016266 0.023653 -0.014248 -0.012476 -0.002095 -0.000227 0.010895 -0.019807 0.020046 -0.014682 0.012637 0.011456 0.004516 0.012025 -0.041902 0.019738 -0.021759 -0.001024 -0.008690 -0.001239 -0.000014 -0.017708 0.020643 -0.015079 0.005596 -0.006147 -0.011431 0.015851 0.010019 -0.010198 0.008455 0.016365 -0.035279 0.003644 0.001321 0.012741 0.015916 0.007219 -0.001622 0.001214 -0.019393 0.013170 0.012524 -0.002549 0.004935 0.007307 -0.007743 -0.023673 -0.039030 -0.000658 -0.011591 0.012218 0.003967 -0.005872 -0.009853 0.015517 -0.001111 0.013099 0.009747 0.022640 0.007378 0.006272 
será 0.023523 0.030698 0.008904 0.011359 -0.036562 -0.025639 0.022708 -0.006017 0.012078 -0.019238 0.019883 -0.012166 -0.014039 0.007230 0.009681 0.010401 -0.008779 -0.001022 0.015562 -0.018527 0.002511 0.007126 -0.008140 -0.004617 -0.021729 -0.012980 -0.015979 0.013135 0.015180 -0.009055 -0.000614 0.031341 -0.015068 0.002937 0.009242 0.010499 -0.010001 0.002165 -0.016414 0.021716 -0.017325 -0.015599 -0.003005 0.004785 0.006935 -0.020553 0.030329 -0.011747 0.004768 0.011389 0.005844 0.007979 -0.046711 0.017672 -0.025491 -0.004407 -0.011774 -0.001781 0.000552 -0.021424 0.025510 -0.017597 0.003059 -0.007889 -0.017171 0.019290 0.010802 -0.013973 0.006741 0.016849 -0.041644 -0.000399 -0.007318 0.012765 0.013590 0.016480 0.000015 -0.007692 -0.018842 0.015353 0.013863 -0.009213 -0.000657 0.012493 -0.004131 -0.030825 -0.046245 0.003788 -0.016791 0.011049 -0.003346 -0.008278 -0.005953 0.016077 -0.004935 0.014245 0.004206 0.029859 0.007366 0.013406 
casa 0.040591 0.041697 0.000759 0.009681 -0.049376 -0.040146 0.032878 -0.008246 0.020327 -0.024917 0.022715 -0.013638 -0.011905 0.016482 0.013513 0.014762 -0.008165 0.002047 0.011216 -0.019767 0.014699 0.002870 -0.004866 -0.007899 -0.023524 -0.011610 -0.024112 0.017973 0.019263 -0.005930 -0.005587 0.035082 -0.020346 -0.001014 0.003084 0.014179 -0.003986 0.008750 -0.022632 0.033021 -0.015442 -0.018681 -0.005483 0.005539 0.013871 -0.030582 0.033710 -0.016671 0.012517 0.010265 0.008709 0.009591 -0.061075 0.028754 -0.030872 0.000907 -0.014159 -0.011392 0.001319 -0.027194 0.039500 -0.019269 0.005799 -0.011370 -0.017237 0.030540 0.018038 -0.014197 0.003999 0.013877 -0.055218 -0.001557 -0.009714 0.023107 0.013985 0.018127 -0.002293 -0.010380 -0.023234 0.023049 0.014602 -0.006335 -0.003758 0.010871 -0.006595 -0.038050 -0.060420 0.003720 -0.024400 0.012822 0.004535 -0.010948 -0.015959 0.018418 -0.007309 0.020064 0.010223 0.041261 0.010432 0.018658 
apenas 0.042769 0.045008 0.005607 0.009070 -0.050728 -0.043884 0.034635 -0.011549 0.018165 -0.021275 0.021548 -0.007303 -0.017876 0.018544 0.018178 0.021031 -0.009986 0.002733 0.018819 -0.025673 0.007984 0.008380 -0.003190 -0.003955 -0.025021 -0.012351 -0.027965 0.012283 0.020715 -0.011551 0.000185 0.038193 -0.028326 0.000276 0.010484 0.014056 -0.005682 0.012849 -0.029000 0.034194 -0.013071 -0.020064 -0.010699 0.008650 0.012151 -0.024189 0.034411 -0.020316 0.011749 0.012187 0.007046 0.019031 -0.067710 0.031290 -0.032242 0.005341 -0.015554 -0.004617 0.000528 -0.022397 0.036284 -0.014538 0.004384 -0.007630 -0.024285 0.036553 0.010642 -0.020329 0.005001 0.018649 -0.060543 0.003060 -0.008532 0.020843 0.023364 0.021894 -0.003290 -0.008336 -0.029365 0.017168 0.015750 -0.009736 -0.004276 0.014249 -0.010219 -0.036163 -0.065406 0.005774 -0.021067 0.010306 0.000856 -0.008265 -0.015483 0.024242 -0.012096 0.020081 0.008499 0.047254 0.010961 0.020305 
